{"learner":{"attributes":{"best_iteration":"999","best_ntree_limit":"1000","scikit_learn":"{\"use_label_encoder\": true, \"n_estimators\": 1000, \"objective\": \"binary:logistic\", \"max_depth\": 5, \"learning_rate\": 0.0001, \"verbosity\": null, \"booster\": null, \"tree_method\": null, \"gamma\": 0, \"min_child_weight\": 1, \"max_delta_step\": null, \"subsample\": 0.8, \"colsample_bytree\": 0.8, \"colsample_bylevel\": null, \"colsample_bynode\": null, \"reg_alpha\": null, \"reg_lambda\": null, \"scale_pos_weight\": 1, \"base_score\": null, \"missing\": NaN, \"num_parallel_tree\": null, \"random_state\": null, \"n_jobs\": null, \"monotone_constraints\": null, \"interaction_constraints\": null, \"importance_type\": null, \"gpu_id\": null, \"validate_parameters\": null, \"predictor\": null, \"enable_categorical\": false, \"kwargs\": {\"nthread\": 4, \"seed\": 27}, \"classes_\": [0, 1], \"n_classes_\": 2, \"_le\": {\"classes_\": [0, 1]}, \"_estimator_type\": \"classifier\"}"},"feature_names":[],"feature_types":[],"gradient_booster":{"model":{"gbtree_model_param":{"num_trees":"1000","size_leaf_vector":"0"},"tree_info":[0,0,0,0,0,0,0,0,0,0,0,0,0,0,0,0,0,0,0,0,0,0,0,0,0,0,0,0,0,0,0,0,0,0,0,0,0,0,0,0,0,0,0,0,0,0,0,0,0,0,0,0,0,0,0,0,0,0,0,0,0,0,0,0,0,0,0,0,0,0,0,0,0,0,0,0,0,0,0,0,0,0,0,0,0,0,0,0,0,0,0,0,0,0,0,0,0,0,0,0,0,0,0,0,0,0,0,0,0,0,0,0,0,0,0,0,0,0,0,0,0,0,0,0,0,0,0,0,0,0,0,0,0,0,0,0,0,0,0,0,0,0,0,0,0,0,0,0,0,0,0,0,0,0,0,0,0,0,0,0,0,0,0,0,0,0,0,0,0,0,0,0,0,0,0,0,0,0,0,0,0,0,0,0,0,0,0,0,0,0,0,0,0,0,0,0,0,0,0,0,0,0,0,0,0,0,0,0,0,0,0,0,0,0,0,0,0,0,0,0,0,0,0,0,0,0,0,0,0,0,0,0,0,0,0,0,0,0,0,0,0,0,0,0,0,0,0,0,0,0,0,0,0,0,0,0,0,0,0,0,0,0,0,0,0,0,0,0,0,0,0,0,0,0,0,0,0,0,0,0,0,0,0,0,0,0,0,0,0,0,0,0,0,0,0,0,0,0,0,0,0,0,0,0,0,0,0,0,0,0,0,0,0,0,0,0,0,0,0,0,0,0,0,0,0,0,0,0,0,0,0,0,0,0,0,0,0,0,0,0,0,0,0,0,0,0,0,0,0,0,0,0,0,0,0,0,0,0,0,0,0,0,0,0,0,0,0,0,0,0,0,0,0,0,0,0,0,0,0,0,0,0,0,0,0,0,0,0,0,0,0,0,0,0,0,0,0,0,0,0,0,0,0,0,0,0,0,0,0,0,0,0,0,0,0,0,0,0,0,0,0,0,0,0,0,0,0,0,0,0,0,0,0,0,0,0,0,0,0,0,0,0,0,0,0,0,0,0,0,0,0,0,0,0,0,0,0,0,0,0,0,0,0,0,0,0,0,0,0,0,0,0,0,0,0,0,0,0,0,0,0,0,0,0,0,0,0,0,0,0,0,0,0,0,0,0,0,0,0,0,0,0,0,0,0,0,0,0,0,0,0,0,0,0,0,0,0,0,0,0,0,0,0,0,0,0,0,0,0,0,0,0,0,0,0,0,0,0,0,0,0,0,0,0,0,0,0,0,0,0,0,0,0,0,0,0,0,0,0,0,0,0,0,0,0,0,0,0,0,0,0,0,0,0,0,0,0,0,0,0,0,0,0,0,0,0,0,0,0,0,0,0,0,0,0,0,0,0,0,0,0,0,0,0,0,0,0,0,0,0,0,0,0,0,0,0,0,0,0,0,0,0,0,0,0,0,0,0,0,0,0,0,0,0,0,0,0,0,0,0,0,0,0,0,0,0,0,0,0,0,0,0,0,0,0,0,0,0,0,0,0,0,0,0,0,0,0,0,0,0,0,0,0,0,0,0,0,0,0,0,0,0,0,0,0,0,0,0,0,0,0,0,0,0,0,0,0,0,0,0,0,0,0,0,0,0,0,0,0,0,0,0,0,0,0,0,0,0,0,0,0,0,0,0,0,0,0,0,0,0,0,0,0,0,0,0,0,0,0,0,0,0,0,0,0,0,0,0,0,0,0,0,0,0,0,0,0,0,0,0,0,0,0,0,0,0,0,0,0,0,0,0,0,0,0,0,0,0,0,0,0,0,0,0,0,0,0,0,0,0,0,0,0,0,0,0,0,0,0,0,0,0,0,0,0,0,0,0,0,0,0,0,0,0,0,0,0,0,0,0,0,0,0,0,0,0,0,0,0,0,0,0,0,0,0,0,0,0,0,0,0,0,0,0,0,0,0,0,0,0,0,0,0,0,0,0,0,0,0,0,0,0,0,0,0,0,0,0,0,0,0,0,0,0,0,0,0,0,0,0,0,0,0,0,0,0,0,0,0,0,0,0,0,0,0,0,0,0,0,0,0,0,0,0,0,0,0,0,0,0,0,0,0,0,0,0,0,0,0,0,0,0,0,0,0,0,0,0,0,0,0,0,0,0,0,0,0,0,0,0,0,0,0,0,0,0,0,0,0,0,0,0,0,0,0,0,0,0,0,0,0,0,0,0,0,0,0,0,0,0,0,0,0,0,0,0,0,0,0,0,0,0,0,0,0,0,0,0,0,0,0,0,0,0,0,0,0,0,0,0],"trees":[{"base_weights":[-6.2240666E-1,-1.3333334E0,5.263158E-1,-1.6767677E0,-6.181818E-1,-7.368421E-1,8E-1,-1.8441558E0,-9.230769E-1,-1.4285715E0,6.666667E-1,-1.2E0,5E-1,-5E-1,8.947368E-1,-5E-1,-1.8904109E0,-1.0909091E0,-0E0,-1.6521739E0,-7.5E-1,-5E-1,1E0,5.833333E-1,1.25E0,-1.25E0,-4E-1,-0E0,-1.2E0,1.25E0,-0E0,7.906977E-1,-6.666667E-1,1.5E0,3.3333334E-1],"categories":[],"categories_nodes":[],"categories_segments":[],"categories_sizes":[],"default_left":[true,true,true,true,true,true,true,true,true,true,true,false,false,false,true,false,false,true,false,false,true,false,true,true,true,false,false,false,false,false,false,false,false,false,false],"id":0,"left_children":[1,3,5,7,9,11,13,15,17,19,21,-1,-1,-1,23,-1,-1,25,-1,-1,27,-1,29,31,33,-1,-1,-1,-1,-1,-1,-1,-1,-1,-1],"loss_changes":[4.9905365E1,8.173744E0,8.799999E0,1.4201279E0,1.5269264E1,3.3210528E0,2.9105263E0,2.5164795E-1,1.0069928E0,8.8508606E-2,2.8333333E0,0E0,0E0,0E0,1.3728075E0,0E0,0E0,1.0454559E-1,0E0,0E0,1.3499999E0,0E0,1.25E0,3.6375966E0,1.333333E0,0E0,0E0,0E0,0E0,0E0,0E0,0E0,0E0,0E0,0E0],"parents":[2147483647,0,0,1,1,2,2,3,3,4,4,5,5,6,6,7,7,8,8,9,9,10,10,14,14,17,17,20,20,22,22,23,23,24,24],"right_children":[2,4,6,8,10,12,14,16,18,20,22,-1,-1,-1,24,-1,-1,26,-1,-1,28,-1,30,32,34,-1,-1,-1,-1,-1,-1,-1,-1,-1,-1],"split_conditions":[1.580866E-1,-3.302784E-1,-7.2290653E-1,6.0502625E-1,-4.6855034E-3,1.0016565E0,-1.2039804E0,-1.0072973E0,-5.2659243E-1,-5.691812E-1,-7.82635E-1,-1.20000004E-4,5E-5,-5E-5,1.0665466E0,-5E-5,-1.8904108E-4,-3.9258175E-2,-0E0,-1.6521738E-4,-3.3327255E-1,-5E-5,1.2779534E0,9.692116E-1,1.6819408E0,-1.2499999E-4,-4E-5,-0E0,-1.20000004E-4,1.2499999E-4,-0E0,7.906977E-5,-6.666667E-5,1.4999999E-4,3.3333334E-5],"split_indices":[1,7,7,3,4,1,3,4,7,4,6,0,0,0,1,0,0,6,0,0,4,0,6,1,7,0,0,0,0,0,0,0,0,0,0],"split_type":[0,0,0,0,0,0,0,0,0,0,0,0,0,0,0,0,0,0,0,0,0,0,0,0,0,0,0,0,0,0,0,0,0,0,0],"sum_hessian":[5.925E1,3.65E1,2.275E1,2.375E1,1.275E1,3.75E0,1.9E1,1.825E1,5.5E0,7.75E0,5E0,2.75E0,1E0,1E0,1.8E1,1E0,1.725E1,4.5E0,1E0,4.75E0,3E0,1E0,4E0,1.1E1,7E0,3E0,1.5E0,1.5E0,1.5E0,3E0,1E0,9.75E0,1.25E0,5E0,2E0],"tree_param":{"num_deleted":"0","num_feature":"8","num_nodes":"35","size_leaf_vector":"0"}},{"base_weights":[-7.3431766E-1,-1.3180699E0,5.237499E-1,-1.5292926E0,-5.453753E-1,-4.0842425E-2,1.1793915E0,-1.605939E0,5.000206E-1,-1.2726258E0,1.5389442E-1,-1.0000005E0,3.78344E-1,-6.0409307E-5,1.3141929E0,-1.6973444E0,-5.882337E-1,-5.881714E-1,1.0769361E0,-1.3333197E0,-2.1338463E-5,8.3865774E-1,-1.1999663E0,1.4837785E0,-4.7922134E-5,-1.7498581E0,-5.4544264E-1,-1.2726817E0,3.999525E-1,-1.1110214E0,2.3186207E-5,1.1666144E0,-1.8185043E-1],"categories":[],"categories_nodes":[],"categories_segments":[],"categories_sizes":[],"default_left":[true,true,true,true,true,true,true,true,false,false,true,true,true,false,true,true,true,true,false,false,false,true,false,false,false,false,false,false,false,false,false,false,false],"id":1,"left_children":[1,3,5,7,9,11,13,15,-1,-1,17,19,21,-1,23,25,27,29,-1,-1,-1,31,-1,-1,-1,-1,-1,-1,-1,-1,-1,-1,-1],"loss_changes":[4.769192E1,6.3472214E0,7.821743E0,6.0913544E0,5.789838E0,5.303653E0,1.5502491E0,2.0713425E0,0E0,0E0,5.085648E0,1.3332205E0,7.7266517E0,0E0,1.9502392E0,8.451538E-1,3.383551E0,1.3070602E0,0E0,0E0,0E0,2.8059378E0,0E0,0E0,0E0,0E0,0E0,0E0,0E0,0E0,0E0,0E0,0E0],"parents":[2147483647,0,0,1,1,2,2,3,3,4,4,5,5,6,6,7,7,10,10,11,11,12,12,14,14,15,15,16,16,17,17,21,21],"right_children":[2,4,6,8,10,12,14,16,-1,-1,18,20,22,-1,24,26,28,30,-1,-1,-1,32,-1,-1,-1,-1,-1,-1,-1,-1,-1,-1,-1],"split_conditions":[3.0408907E-1,2.4910825E-1,1.0665466E0,1.7544266E0,-6.205933E-1,-4.1121984E-1,-5.144167E-1,1.580866E-1,5.000206E-5,-1.2726258E-4,-2.4974714E-1,7.096516E-1,9.692116E-1,-6.0409304E-9,2.8472815E0,1.6209702E0,-6.803206E-1,-1.7613323E-1,1.0769361E-4,-1.3333197E-4,-2.1338462E-9,1.0810807E0,-1.1999663E-4,1.4837785E-4,-4.7922133E-9,-1.749858E-4,-5.4544264E-5,-1.2726817E-4,3.9995248E-5,-1.11102134E-4,2.3186206E-9,1.1666144E-4,-1.8185043E-5],"split_indices":[1,6,1,5,1,5,4,1,0,0,0,1,1,0,4,0,3,5,0,0,0,3,0,0,0,0,0,0,0,0,0,0,0],"split_type":[0,0,0,0,0,0,0,0,0,0,0,0,0,0,0,0,0,0,0,0,0,0,0,0,0,0,0,0,0,0,0,0,0],"sum_hessian":[6.3E1,4.3E1,2E1,3.3E1,1E1,1.125E1,8.75E0,3.2E1,1E0,4.5E0,5.5E0,3E0,8.25E0,1E0,7.75E0,2.875E1,3.25E0,3.25E0,2.25E0,2E0,1E0,6.75E0,1.5E0,6.75E0,1E0,2.7E1,1.75E0,1.75E0,1.5E0,1.25E0,2E0,5E0,1.75E0],"tree_param":{"num_deleted":"0","num_feature":"8","num_nodes":"33","size_leaf_vector":"0"}},{"base_weights":[-7.174382E-1,-1.044073E0,1.1997917E0,-1.5393184E0,-2.417058E-1,1.333118E0,-7.2300434E-5,-1.6276449E0,-2.8564835E-1,-1.2256238E0,2.4998611E-1,3.9988068E-1,1.466448E0,-1.6797359E0,1.00046396E-4,4.0004963E-1,-9.999466E-1,-1.5997868E0,-3.9990696E-1,-5.142494E-1,1.0302376E0,-1.7308234E0,-3.9989972E-1,-7.999201E-1,2.222885E-1,-1.2726319E0,5.881866E-1,1.4999142E0,4.76153E-1],"categories":[],"categories_nodes":[],"categories_segments":[],"categories_sizes":[],"default_left":[true,true,true,true,true,true,false,true,true,true,true,false,false,true,false,false,false,false,true,true,true,false,false,false,false,false,false,false,false],"id":2,"left_children":[1,3,5,7,9,11,-1,13,15,17,19,-1,-1,21,-1,-1,-1,-1,23,25,27,-1,-1,-1,-1,-1,-1,-1,-1],"loss_changes":[4.227098E1,2.207927E1,1.5998297E0,3.3830109E0,1.1312487E1,5.3345203E-1,0E0,2.7346725E0,2.114303E0,1.7546177E0,1.0070534E1,0E0,0E0,1.3510895E0,0E0,0E0,0E0,0E0,1.1111369E0,8.06414E0,1.4327965E0,0E0,0E0,0E0,0E0,0E0,0E0,0E0,0E0],"parents":[2147483647,0,0,1,1,2,2,3,3,4,4,5,5,7,7,8,8,9,9,10,10,13,13,18,18,19,19,20,20],"right_children":[2,4,6,8,10,12,-1,14,16,18,20,-1,-1,22,-1,-1,-1,-1,24,26,28,-1,-1,-1,-1,-1,-1,-1,-1],"split_conditions":[1.0665466E0,-2.3212135E-1,1.6819408E0,1.298501E0,-6.205933E-1,-6.3338E-1,-7.2300432E-9,1.1518836E0,-6.2443413E-2,1.1420772E0,1.290862E-2,3.9988066E-5,1.4664479E-4,3.7382534E-1,1.000464E-8,4.000496E-5,-9.999466E-5,-1.5997868E-4,2.0143011E-1,1.3731559E-1,2.586638E-1,-1.7308234E-4,-3.9989973E-5,-7.999201E-5,2.2228849E-5,-1.2726318E-4,5.881866E-5,1.499914E-4,4.7615296E-5],"split_indices":[1,7,7,5,1,6,0,6,6,7,6,0,0,0,0,0,0,0,5,5,7,0,0,0,0,0,0,0,0],"split_type":[0,0,0,0,0,0,0,0,0,0,0,0,0,0,0,0,0,0,0,0,0,0,0,0,0,0,0,0,0],"sum_hessian":[6.45E1,5.55E1,9E0,3.375E1,2.175E1,8E0,1E0,3.1249998E1,2.5E0,6.75E0,1.5E1,1.5E0,6.5E0,3.0249998E1,1E0,1.5E0,1E0,4E0,2.75E0,7.75E0,7.25E0,2.8749998E1,1.5E0,1.5E0,1.25E0,4.5E0,3.25E0,3E0,4.25E0],"tree_param":{"num_deleted":"0","num_feature":"8","num_nodes":"29","size_leaf_vector":"0"}},{"base_weights":[-6.613578E-1,-1.3746461E0,4.6144557E-1,-1.7086538E0,-5.924343E-1,-8.146875E-1,8.6403584E-1,-1.7731391E0,1.0302663E-4,-1.0585948E0,1.6669884E-1,-1.4283588E0,7.9989713E-1,4.9048588E-1,1.3747236E0,-1.842678E0,5.015731E-5,-1.4282854E0,-3.5283706E-1,-6.665148E-1,1.0768073E0,8.999197E-1,-5.8829635E-1,1.5711467E0,-1.1956692E-4,-7.6910645E-1,5.0001925E-1,5.7780744E-5,-1.1109222E0,-5.5772916E-6,1.1998955E0,-1.0000212E0,2.221353E-1],"categories":[],"categories_nodes":[],"categories_segments":[],"categories_sizes":[],"default_left":[true,true,true,true,true,true,true,true,false,true,true,false,false,true,true,false,false,false,true,true,false,true,true,false,false,false,false,false,false,false,false,false,false],"id":3,"left_children":[1,3,5,7,9,11,13,15,-1,17,19,-1,-1,21,23,-1,-1,-1,25,27,-1,29,31,-1,-1,-1,-1,-1,-1,-1,-1,-1,-1],"loss_changes":[5.2691685E1,9.438324E0,1.4061647E1,3.0303955E0,4.953818E0,7.830603E0,3.188757E0,3.2676926E0,0E0,1.7137995E0,5.2675962E0,0E0,0E0,6.381811E0,2.1605968E0,0E0,0E0,0E0,1.8933945E0,1.1109259E0,0E0,2.699565E0,1.6402583E0,0E0,0E0,0E0,0E0,0E0,0E0,0E0,0E0,0E0,0E0],"parents":[2147483647,0,0,1,1,2,2,3,3,4,4,5,5,6,6,7,7,9,9,10,10,13,13,14,14,18,18,19,19,21,21,22,22],"right_children":[2,4,6,8,10,12,14,16,-1,18,20,-1,-1,22,24,-1,-1,-1,26,28,-1,30,32,-1,-1,-1,-1,-1,-1,-1,-1,-1,-1],"split_conditions":[1.580866E-1,-2.3212135E-1,-4.967059E-1,1.253319E0,-4.5836836E-1,8.069866E-1,1.4072189E0,1.7330551E0,1.0302663E-8,8.966845E-1,-7.838327E-2,-1.4283588E-4,7.998971E-5,9.692116E-1,1.7097784E0,-1.8426779E-4,5.015731E-9,-1.4282853E-4,1.4912191E-1,5.531349E-1,1.07680724E-4,-6.89894E-1,3.9401603E-1,1.5711467E-4,-1.1956692E-8,-7.691064E-5,5.0001923E-5,5.7780745E-9,-1.1109222E-4,-5.5772914E-10,1.1998955E-4,-1.0000212E-4,2.221353E-5],"split_indices":[1,7,5,6,1,1,1,5,0,7,6,0,0,1,6,0,0,0,6,7,0,6,6,0,0,0,0,0,0,0,0,0,0],"split_type":[0,0,0,0,0,0,0,0,0,0,0,0,0,0,0,0,0,0,0,0,0,0,0,0,0,0,0,0,0,0,0,0,0],"sum_hessian":[6.4E1,3.9E1,2.5E1,2.65E1,1.25E1,5.75E0,1.925E1,2.55E1,1E0,7.5E0,5E0,4.25E0,1.5E0,1.225E1,7E0,2.45E1,1E0,4.25E0,3.25E0,2.75E0,2.25E0,9E0,3.25E0,6E0,1E0,2.25E0,1E0,1.5E0,1.2499999E0,2.5E0,6.5E0,2E0,1.2499999E0],"tree_param":{"num_deleted":"0","num_feature":"8","num_nodes":"33","size_leaf_vector":"0"}},{"base_weights":[-7.0994717E-1,-1.3902324E0,3.6722487E-1,-1.7695227E0,-8.231856E-1,-7.998547E-1,6.33965E-1,-1.4280378E0,1.3336538E-1,-1.1997223E0,2.2208224E-1,-1.1110648E0,8.0499625E-1,-2.2198057E-1,-1.5670205E0,-7.4987286E-1,8.888293E-1,4.3472046E-1,1.1996449E0,-2.2219633E-1,-9.0892714E-1,1.1427991E0,-3.248453E-5,-3.5280225E-1,7.877206E-1,1.407003E0,3.3320764E-1],"categories":[],"categories_nodes":[],"categories_segments":[],"categories_sizes":[],"default_left":[true,true,true,false,true,true,true,true,true,false,false,false,true,false,false,true,true,true,true,false,false,false,false,false,false,false,false],"id":4,"left_children":[1,3,5,-1,7,9,11,13,15,-1,-1,-1,17,-1,-1,19,21,23,25,-1,-1,-1,-1,-1,-1,-1,-1],"loss_changes":[4.5393555E1,6.6624527E0,8.1341E0,0E0,1.0026174E1,2.309634E0,7.012723E0,1.4121742E0,5.6709185E0,0E0,0E0,0E0,2.2914696E0,0E0,0E0,1.3375664E-1,1.0158851E0,3.4748592E0,1.1032257E0,0E0,0E0,0E0,0E0,0E0,0E0,0E0,0E0],"parents":[2147483647,0,0,1,1,2,2,4,4,5,5,6,6,7,7,8,8,12,12,15,15,16,16,17,17,18,18],"right_children":[2,4,6,-1,8,10,12,14,16,-1,-1,-1,18,-1,-1,20,22,24,26,-1,-1,-1,-1,-1,-1,-1,-1],"split_conditions":[1.580866E-1,-5.102041E-1,-7.2290653E-1,-1.7695226E-4,-2.3212135E-1,1.0016565E0,-1.2039804E0,-4.512269E-1,-9.315125E-2,-1.19972225E-4,2.2208224E-5,-1.1110648E-4,1.0665466E0,-2.2198057E-5,-1.5670205E-4,-2.9723847E-1,1.2715025E0,-2.3312393E-1,1.6819408E0,-2.2219632E-5,-9.089271E-5,1.1427991E-4,-3.248453E-9,-3.5280224E-5,7.877206E-5,1.407003E-4,3.3320764E-5],"split_indices":[1,4,7,0,7,1,3,4,4,0,0,0,1,0,0,5,3,5,7,0,0,0,0,0,0,0,0],"split_type":[0,0,0,0,0,0,0,0,0,0,0,0,0,0,0,0,0,0,0,0,0,0,0,0,0,0,0],"sum_hessian":[6.0249996E1,3.6749996E1,2.35E1,2.0749998E1,1.5999999E1,4E0,1.95E1,9.499999E0,6.5E0,2.75E0,1.25E0,1.25E0,1.825E1,1.2499999E0,8.249999E0,3E0,3.5E0,1.05E1,7.7499995E0,1.25E0,1.75E0,2.5E0,1E0,3.25E0,7.25E0,5.7499995E0,2E0],"tree_param":{"num_deleted":"0","num_feature":"8","num_nodes":"27","size_leaf_vector":"0"}},{"base_weights":[-6.8793815E-1,-1.0234652E0,1.0472263E0,-1.6564168E0,-3.7018958E-1,1.3329039E0,-4.001035E-1,-8.2294214E-1,-1.7384102E0,-1.1995344E0,3.2252005E-1,1.5709304E0,3.3320725E-1,-3.328129E-1,-1.1106957E0,-1.7719969E0,-4.9975252E-1,-1.5855567E0,-5.5982316E-1,-3.635565E-1,6.3623834E-1,-1.1996326E0,2.856364E-1,-7.690262E-1,1.5377675E-1,1.9348426E-1,1.2939103E0],"categories":[],"categories_nodes":[],"categories_segments":[],"categories_sizes":[],"default_left":[true,true,true,true,true,true,false,true,true,true,true,false,false,false,false,false,false,false,true,true,true,false,false,false,false,false,false],"id":5,"left_children":[1,3,5,7,9,11,-1,13,15,17,19,-1,-1,-1,-1,-1,-1,-1,21,23,25,-1,-1,-1,-1,-1,-1],"loss_changes":[3.7022316E1,2.0991756E1,4.874731E0,3.632965E-1,1.5898243E1,1.6181431E0,0E0,2.2975111E-1,7.129669E-2,2.199154E0,3.5674474E0,0E0,0E0,0E0,0E0,0E0,0E0,0E0,3.7234898E0,1.2719545E0,2.9527044E0,0E0,0E0,0E0,0E0,0E0,0E0],"parents":[2147483647,0,0,1,1,2,2,3,3,4,4,5,5,7,7,8,8,9,9,10,10,18,18,19,19,20,20],"right_children":[2,4,6,8,10,12,-1,14,16,18,20,-1,-1,-1,-1,-1,-1,-1,22,24,26,-1,-1,-1,-1,-1,-1],"split_conditions":[1.0341015E0,-4.0488768E-1,1.6972269E0,-8.733196E-1,-3.302784E-1,1.6819408E0,-4.001035E-5,-6.744976E-1,1.3040367E0,1.4186409E-1,-1.1842717E-1,1.5709303E-4,3.3320724E-5,-3.328129E-5,-1.1106957E-4,-1.7719968E-4,-4.997525E-5,-1.5855567E-4,-7.2290653E-1,-5.8096185E-2,1.3091841E0,-1.1996326E-4,2.8563638E-5,-7.690262E-5,1.5377675E-5,1.9348427E-5,1.2939102E-4],"split_indices":[1,4,4,0,7,7,0,4,6,1,4,0,0,0,0,0,0,0,7,6,0,0,0,0,0,0,0],"split_type":[0,0,0,0,0,0,0,0,0,0,0,0,0,0,0,0,0,0,0,0,0,0,0,0,0,0,0],"sum_hessian":[6.0749992E1,5.1249992E1,9.499999E0,2.5249996E1,2.5999998E1,7.9999995E0,1.5E0,3.2499995E0,2.1999996E1,1.1499998E1,1.45E1,5.9999995E0,2E0,1.9999996E0,1.2499998E0,2.0999996E1,1E0,6.249999E0,5.2499995E0,4.5E0,1E1,2.7499998E0,2.5E0,2.25E0,2.25E0,6.75E0,3.25E0],"tree_param":{"num_deleted":"0","num_feature":"8","num_nodes":"27","size_leaf_vector":"0"}},{"base_weights":[-7.475715E-1,-1.431518E0,3.998177E-1,-1.6991276E0,-4.612814E-1,-9.088679E-1,7.529581E-1,-1.7556331E0,-2.2194561E-1,-1.5992979E0,6.085209E-1,4.577637E-6,-1.2496961E0,-3.1565276E-1,1.0318577E0,-1.8178815E-1,9.997282E-1,1.1110963E0,-1.142662E0,1.8163142E-1,1.1268587E0,1.2724657E0,2.2205862E-1,1.8166538E-1,1.2495607E0],"categories":[],"categories_nodes":[],"categories_segments":[],"categories_sizes":[],"default_left":[true,true,true,true,true,true,true,false,false,false,true,false,false,true,true,false,true,false,false,false,true,false,false,false,false],"id":6,"left_children":[1,3,5,7,9,11,13,-1,-1,-1,15,-1,-1,17,19,-1,21,-1,-1,-1,23,-1,-1,-1,-1],"loss_changes":[4.883464E1,9.277451E0,1.1660395E1,2.1144028E0,1.2843369E1,1.7037373E0,6.0628853E0,0E0,0E0,0E0,1.9594929E0,0E0,0E0,6.8742967E0,1.0473003E0,0E0,5.658369E-1,0E0,0E0,0E0,1.3676815E0,0E0,0E0,0E0,0E0],"parents":[2147483647,0,0,1,1,2,2,3,3,4,4,5,5,6,6,10,10,13,13,14,14,16,16,20,20],"right_children":[2,4,6,8,10,12,14,-1,-1,-1,16,-1,-1,18,20,-1,22,-1,-1,-1,24,-1,-1,-1,-1],"split_conditions":[1.580866E-1,-4.6855034E-3,-6.247495E-1,1.4338539E0,-2.3212135E-1,-8.733196E-1,-5.1095355E-1,-1.7556331E-4,-2.2194561E-5,-1.5992978E-4,-6.205933E-1,4.577637E-10,-1.249696E-4,6.2039103E-2,-4.512269E-1,-1.8178815E-5,5.878726E-1,1.1110962E-4,-1.142662E-4,1.816314E-5,4.176466E-1,1.2724657E-4,2.2205862E-5,1.8166536E-5,1.2495607E-4],"split_indices":[1,4,7,5,7,0,5,0,0,0,1,0,0,0,4,0,2,0,0,0,1,0,0,0,0],"split_type":[0,0,0,0,0,0,0,0,0,0,0,0,0,0,0,0,0,0,0,0,0,0,0,0,0],"sum_hessian":[6.0499992E1,3.7749992E1,2.2749998E1,2.8999994E1,8.749999E0,4.4999995E0,1.8249998E1,2.7749994E1,1.2499999E0,3.9999993E0,4.75E0,1.4999999E0,2.9999998E0,3.75E0,1.4499999E1,1.75E0,2.9999998E0,1.2499999E0,2.5E0,1.7499999E0,1.2749999E1,1.7499999E0,1.25E0,1.75E0,1.0999999E1],"tree_param":{"num_deleted":"0","num_feature":"8","num_nodes":"25","size_leaf_vector":"0"}},{"base_weights":[-6.076148E-1,-1.0776378E0,1.1328089E0,-1.3167756E0,-1.9599159E-1,1.3594218E0,-1.8252646E-4,-1.5338693E0,-5.7739365E-1,-1.1299597E0,4.997969E-1,2.2200634E-1,1.4660676E0,-2.2235402E-1,2.2207008E-1,-1.5796125E0,-2.2190902E-1,-9.183964E-1,6.6649586E-1,-1.3328142E0,-2.2204639E-1,1.2378315E0,-6.667307E-1,4.6131754E-1,1.6659975E0,-1.28505E0,1.5390262E-1,-8.0006975E-1,-2.2225147E-1,1.9073486E-6,6.663459E-1],"categories":[],"categories_nodes":[],"categories_segments":[],"categories_sizes":[],"default_left":[true,true,true,true,true,true,true,true,true,true,true,false,true,false,false,false,false,true,false,false,false,false,true,true,false,false,false,false,false,false,false],"id":7,"left_children":[1,3,5,7,9,11,13,15,17,19,21,-1,23,-1,-1,-1,-1,25,-1,-1,-1,-1,27,29,-1,-1,-1,-1,-1,-1,-1],"loss_changes":[5.7051918E1,1.117971E1,3.8515053E0,5.936249E0,8.850265E0,1.1907787E0,2.2220185E-1,1.5848999E0,5.384017E0,7.630558E-1,7.7128015E0,0E0,1.4913425E0,0E0,0E0,0E0,0E0,3.8345246E0,0E0,0E0,0E0,0E0,4.44324E-2,3.0739278E-1,0E0,0E0,0E0,0E0,0E0,0E0,0E0],"parents":[2147483647,0,0,1,1,2,2,3,3,4,4,5,5,6,6,7,7,8,8,9,9,10,10,12,12,17,17,22,22,23,23],"right_children":[2,4,6,8,10,12,14,16,18,20,22,-1,24,-1,-1,-1,-1,26,-1,-1,-1,-1,28,30,-1,-1,-1,-1,-1,-1,-1],"split_conditions":[8.069866E-1,1.580866E-1,1.5076575E0,-5.9450008E-2,-4.5396286E-1,-5.312673E-1,2.695626E0,1.4409778E0,6.856116E-1,-6.1449878E-2,3.0283827E-1,2.2200633E-5,1.0341015E0,-2.2235401E-5,2.2207008E-5,-1.5796124E-4,-2.2190901E-5,8.4305346E-1,6.664958E-5,-1.3328141E-4,-2.2204638E-5,1.2378315E-4,6.716033E-1,9.9739784E-1,1.6659974E-4,-1.28505E-4,1.5390262E-5,-8.0006976E-5,-2.2225147E-5,1.9073486E-10,6.663459E-5],"split_indices":[1,1,4,4,5,4,4,5,0,3,4,0,1,0,0,0,0,3,0,0,0,0,5,0,0,0,0,0,0,0,0],"split_type":[0,0,0,0,0,0,0,0,0,0,0,0,0,0,0,0,0,0,0,0,0,0,0,0,0,0,0,0,0,0,0],"sum_hessian":[6.7249985E1,5.324999E1,1.3999998E1,4.149999E1,1.1749999E1,1.1499998E1,2.5E0,3.124999E1,1.0249998E1,4.7499995E0,6.9999995E0,1.2499999E0,1.0249999E1,1.25E0,1.25E0,2.999999E1,1.2499999E0,8.249998E0,2E0,3.4999995E0,1.25E0,4.25E0,2.75E0,2.25E0,7.9999986E0,5.9999986E0,2.2499998E0,1.5E0,1.25E0,1E0,1.2499999E0],"tree_param":{"num_deleted":"0","num_feature":"8","num_nodes":"31","size_leaf_vector":"0"}},{"base_weights":[-6.461127E-1,-1.2838439E0,1.848272E-1,-1.5503573E0,-5.827538E-1,-1.1992536E0,7.2691256E-1,-1.6978351E0,-4.4386527E-1,-1.1104164E0,8.036238E-2,-3.5242277E-1,-1.6355766E0,-6.665223E-1,8.42976E-1,-1.8430158E0,-7.993227E-1,3.3376178E-1,-1.1994716E0,-1.3035085E0,-6.8455935E-5,6.002646E-1,-1.1106925E0,-1.1992679E0,5.455901E-1,7.995245E-2,1.0962611E0,-1.8124843E-1,-1.0763632E0,-2.2179018E-1,9.334269E-1,-4.9995208E-1,7.6908034E-1,1.2275301E0,-2.2233614E-1],"categories":[],"categories_nodes":[],"categories_segments":[],"categories_sizes":[],"default_left":[true,true,true,true,true,true,true,true,true,true,true,true,false,false,true,false,true,false,false,false,false,true,false,false,false,true,true,false,false,false,false,false,false,false,false],"id":8,"left_children":[1,3,5,7,9,11,13,15,17,19,21,23,-1,-1,25,-1,27,-1,-1,-1,-1,29,-1,-1,-1,31,33,-1,-1,-1,-1,-1,-1,-1,-1],"loss_changes":[3.5476715E1,6.150112E0,2.3192873E1,3.611534E0,4.2880535E0,2.656639E0,4.119852E0,1.5597076E0,3.0444465E0,1.4471073E0,4.536909E0,3.886339E0,0E0,0E0,3.9225502E0,0E0,6.6106844E-1,0E0,0E0,0E0,0E0,1.5764129E0,0E0,0E0,0E0,2.8821805E0,2.9558334E0,0E0,0E0,0E0,0E0,0E0,0E0,0E0,0E0],"parents":[2147483647,0,0,1,1,2,2,3,3,4,4,5,5,6,6,7,7,8,8,9,9,10,10,11,11,14,14,16,16,21,21,25,25,26,26],"right_children":[2,4,6,8,10,12,14,16,18,20,22,24,-1,-1,26,-1,28,-1,-1,-1,-1,30,-1,-1,-1,32,34,-1,-1,-1,-1,-1,-1,-1,-1],"split_conditions":[-2.3212135E-1,3.1939363E-1,-4.0910032E-1,-4.2843542E-1,-2.3778181E-1,4.5497787E-1,-1.2515858E0,4.3169206E-1,6.2039103E-2,3.8709137E-1,3.8709137E-1,1.3271231E-2,-1.6355766E-4,-6.665223E-5,-1.1842717E-1,-1.8430158E-4,6.9107693E-1,3.3376178E-5,-1.1994716E-4,-1.3035085E-4,-6.8455934E-9,-5.818192E-1,-1.1106925E-4,-1.19926786E-4,5.455901E-5,9.4576305E-1,2.6144326E0,-1.8124842E-5,-1.0763632E-4,-2.2179018E-5,9.334269E-5,-4.9995208E-5,7.690803E-5,1.2275302E-4,-2.2233613E-5],"split_indices":[7,3,4,7,6,7,3,6,0,4,4,7,0,0,4,0,6,0,0,0,0,4,0,0,0,7,7,0,0,0,0,0,0,0,0],"split_type":[0,0,0,0,0,0,0,0,0,0,0,0,0,0,0,0,0,0,0,0,0,0,0,0,0,0,0,0,0,0,0,0,0,0,0],"sum_hessian":[6.5499985E1,3.674999E1,2.8749996E1,2.574999E1,1.0999997E1,7.749998E0,2.0999998E1,2.2249992E1,3.499999E0,5.7499986E0,5.249999E0,3.2499993E0,4.4999986E0,1.25E0,1.9749998E1,1.8249992E1,3.999999E0,1.9999995E0,1.4999996E0,4.7499986E0,1E0,3.9999993E0,1.2499998E0,1.4999995E0,1.7499998E0,5.2499995E0,1.4499998E1,1.7499994E0,2.2499995E0,1.2499996E0,2.7499995E0,2.9999998E0,2.2499998E0,1.3249998E1,1.25E0],"tree_param":{"num_deleted":"0","num_feature":"8","num_nodes":"35","size_leaf_vector":"0"}},{"base_weights":[-6.002253E-1,-1.1854368E0,5.7736725E-1,-1.5247606E0,-8.651437E-2,-2.068846E-1,8.917339E-1,-1.6295607E0,6.6668904E-1,-9.557214E-1,6.667381E-1,-1.1995444E0,2.6068655E-1,9.994266E-1,-2.2254367E-1,-1.7804823E0,-6.6624355E-1,-1.3323874E0,2.2237572E-1,-1.811204E-1,9.997126E-1,8.5673857E-1,-4.6142682E-1,5.7108045E-1,1.6354647E0,-1.4279878E0,2.8585598E-1,1.332994E0,3.331936E-1,1.1107634E0,2.2194093E-1,7.39077E-2,1.1573616E0],"categories":[],"categories_nodes":[],"categories_segments":[],"categories_sizes":[],"default_left":[true,true,true,true,true,true,true,true,false,true,true,false,true,true,false,false,true,false,false,false,true,true,false,true,false,false,false,false,false,false,false,false,false],"id":9,"left_children":[1,3,5,7,9,11,13,15,-1,17,19,-1,21,23,-1,-1,25,-1,-1,-1,27,29,-1,31,-1,-1,-1,-1,-1,-1,-1,-1,-1],"loss_changes":[4.5995422E1,1.636848E1,5.731694E0,8.83757E0,8.1666355E0,3.677713E0,2.172409E0,3.5387878E0,0E0,2.8478475E0,2.086696E0,0E0,2.8702204E0,3.1526852E0,0E0,0E0,4.759737E0,0E0,0E0,0E0,6.665468E-1,3.1786656E-1,0E0,2.9750338E0,0E0,0E0,0E0,0E0,0E0,0E0,0E0,0E0,0E0],"parents":[2147483647,0,0,1,1,2,2,3,3,4,4,5,5,6,6,7,7,9,9,10,10,12,12,13,13,16,16,20,20,21,21,23,23],"right_children":[2,4,6,8,10,12,14,16,-1,18,20,-1,22,24,-1,-1,26,-1,-1,-1,28,30,-1,32,-1,-1,-1,-1,-1,-1,-1,-1,-1],"split_conditions":[3.0408907E-1,3.3460385E-1,-4.2843542E-1,1.7330551E0,-6.205933E-1,-2.4024776E-1,1.8358482E0,6.2349744E-2,6.66689E-5,-5.649686E-1,-3.302784E-1,-1.1995444E-4,3.2390153E-1,1.4072189E0,-2.2254366E-5,-1.7804823E-4,1.4443943E-1,-1.3323875E-4,2.2237571E-5,-1.811204E-5,2.586638E-1,-6.247495E-1,-4.6142683E-5,2.6554465E-1,1.6354646E-4,-1.4279877E-4,2.8585597E-5,1.332994E-4,3.331936E-5,1.1107634E-4,2.2194094E-5,7.39077E-6,1.1573616E-4],"split_indices":[1,6,7,5,1,5,6,7,0,4,7,0,4,1,0,0,5,0,0,0,7,7,0,5,0,0,0,0,0,0,0,0,0],"split_type":[0,0,0,0,0,0,0,0,0,0,0,0,0,0,0,0,0,0,0,0,0,0,0,0,0,0,0,0,0,0,0,0,0],"sum_hessian":[6.474998E1,4.324998E1,2.1499996E1,3.2749985E1,1.0499997E1,6.2499995E0,1.5249997E1,3.1499985E1,1.2499999E0,4.7499986E0,5.749999E0,1.4999998E0,4.7499995E0,1.3999998E1,1.2499999E0,2.6499987E1,4.999999E0,3.4999986E0,1.2499999E0,1.7499994E0,3.9999995E0,2.4999998E0,2.2499998E0,9.499999E0,4.4999986E0,2.4999995E0,2.4999998E0,1.9999998E0,1.9999998E0,1.2499998E0,1.2499999E0,5.7499995E0,3.7499995E0],"tree_param":{"num_deleted":"0","num_feature":"8","num_nodes":"33","size_leaf_vector":"0"}},{"base_weights":[-5.9782046E-1,-1.4986215E0,-4.9251653E-2,-1.6571023E0,-4.436256E-1,-8.044603E-1,6.063446E-1,-7.490531E-1,-1.7699649E0,-1.1990625E0,3.337803E-1,-1.2330674E0,-1.1733174E-1,-6.0583662E-2,9.3273216E-1,-1.1990724E0,5.874039E-4,-1.4583771E0,-2.8530118E-1,9.092307E-1,-5.1817846E-1,-3.702283E-1,7.9969025E-1,-3.9987707E-1,1.1104203E0,-4.6093068E-1,-1.7131376E0,6.66731E-1,-1.1105329E0,-1.19952E0,2.501239E-1,3.9980936E-1,-6.6639316E-1,1.2492511E0,-1.3518333E-4],"categories":[],"categories_nodes":[],"categories_segments":[],"categories_sizes":[],"default_left":[true,true,true,true,true,true,true,true,false,false,false,true,true,true,true,false,false,true,true,false,true,true,false,false,true,false,false,false,false,false,false,false,false,false,false],"id":10,"left_children":[1,3,5,7,9,11,13,15,-1,-1,-1,17,19,21,23,-1,-1,25,27,-1,29,31,-1,-1,33,-1,-1,-1,-1,-1,-1,-1,-1,-1,-1],"loss_changes":[3.130479E1,3.277584E0,2.0539808E1,7.7513885E-1,3.0429876E0,5.524604E0,4.899823E0,1.3501146E0,0E0,0E0,0E0,2.093027E0,3.9688435E0,2.493696E0,3.9958658E0,0E0,0E0,1.5608788E0,3.490191E0,0E0,3.8334937E0,1.8058226E0,0E0,0E0,2.0815868E0,0E0,0E0,0E0,0E0,0E0,0E0,0E0,0E0,0E0,0E0],"parents":[2147483647,0,0,1,1,2,2,3,3,4,4,5,5,6,6,7,7,11,11,12,12,13,13,14,14,17,17,18,18,20,20,21,21,24,24],"right_children":[2,4,6,8,10,12,14,16,-1,-1,-1,18,20,22,24,-1,-1,26,28,-1,30,32,-1,-1,34,-1,-1,-1,-1,-1,-1,-1,-1,-1,-1],"split_conditions":[-5.102041E-1,8.282545E-1,-2.3212135E-1,-8.733196E-1,-4.8989883E-1,3.1939363E-1,-1.1842717E-1,-1.0905531E-1,-1.7699649E-4,-1.19906246E-4,3.3378026E-5,-4.2843542E-1,-6.140367E-1,8.4305346E-1,-1.2515858E0,-1.19907236E-4,5.8740387E-8,-8.733196E-1,6.2039103E-2,9.0923066E-5,-5.615334E-1,-4.422934E-1,7.9969024E-5,-3.9987706E-5,2.6144326E0,-4.6093068E-5,-1.7131376E-4,6.66731E-5,-1.1105328E-4,-1.19952E-4,2.5012389E-5,3.9980936E-5,-6.663932E-5,1.249251E-4,-1.3518333E-8],"split_indices":[4,2,7,0,3,3,4,3,0,0,0,7,2,3,3,0,0,0,0,0,0,3,0,0,7,0,0,0,0,0,0,0,0,0,0],"split_type":[0,0,0,0,0,0,0,0,0,0,0,0,0,0,0,0,0,0,0,0,0,0,0,0,0,0,0,0,0,0,0,0,0,0,0],"sum_hessian":[6.2499977E1,2.2999987E1,3.949999E1,1.9499989E1,3.4999986E0,1.8249994E1,2.1249996E1,2.9999986E0,1.649999E1,1.499999E0,1.9999994E0,1.0749995E1,7.4999986E0,7.249999E0,1.3999997E1,1.499999E0,1.4999995E0,8.249996E0,2.4999993E0,1.7499998E0,5.7499986E0,5.7499995E0,1.4999998E0,1.4999999E0,1.2499997E1,2.2499988E0,5.999997E0,1.2499998E0,1.2499995E0,2.7499993E0,2.9999995E0,1.4999998E0,4.2499995E0,1.0999998E1,1.5E0],"tree_param":{"num_deleted":"0","num_feature":"8","num_nodes":"35","size_leaf_vector":"0"}},{"base_weights":[-6.5084237E-1,-1.2761792E0,2.2995895E-1,-1.5499622E0,-6.146506E-1,-1.1239924E0,7.2886014E-1,-1.6580523E0,-5.875904E-1,-1.3671919E0,-1.617619E-1,-1.3588556E0,-1.814881E-1,-2.849561E-5,9.833945E-1,-1.7983903E0,-6.6587186E-1,4.17322E-4,-1.1104494E0,1.000035E0,-6.2019354E-1,-1.5544697E0,-5.446303E-1,-6.6653734E-1,6.6648793E-1,6.0398424E-1,1.4992721E0,2.2268313E-1,-1.0761416E0,-9.0847015E-1,1.8188457E-1,-1.1107184E0,-1.594186E-4,1.1109457E0,-1.19245065E-4,1.0392758E0,-4.8047854E-4],"categories":[],"categories_nodes":[],"categories_segments":[],"categories_sizes":[],"default_left":[true,true,true,true,true,true,true,true,true,false,true,true,false,true,true,false,true,false,false,false,true,false,false,true,true,true,false,false,false,false,false,false,false,false,false,false,false],"id":11,"left_children":[1,3,5,7,9,11,13,15,17,-1,19,21,-1,23,25,-1,27,-1,-1,-1,29,-1,-1,31,33,35,-1,-1,-1,-1,-1,-1,-1,-1,-1,-1,-1],"loss_changes":[3.6646084E1,6.065529E0,1.9901762E1,1.8083572E0,4.209465E0,1.5242586E0,3.94248E0,2.0746536E0,1.3071048E0,0E0,5.546805E0,1.488514E-1,0E0,3.3317928E0,2.1771984E0,0E0,1.8801008E0,0E0,0E0,0E0,1.841584E0,0E0,0E0,1.1097944E0,1.1111773E0,2.829021E0,0E0,0E0,0E0,0E0,0E0,0E0,0E0,0E0,0E0,0E0,0E0],"parents":[2147483647,0,0,1,1,2,2,3,3,4,4,5,5,6,6,7,7,8,8,10,10,11,11,13,13,14,14,16,16,20,20,23,23,24,24,25,25],"right_children":[2,4,6,8,10,12,14,16,18,-1,20,22,-1,24,26,-1,28,-1,-1,-1,30,-1,-1,32,34,36,-1,-1,-1,-1,-1,-1,-1,-1,-1,-1,-1],"split_conditions":[-2.3212135E-1,3.1939363E-1,-4.0910032E-1,-4.2843542E-1,-5.017787E-1,9.885091E-1,-1.1842717E-1,4.3169206E-1,6.2039103E-2,-1.3671919E-4,-6.140367E-1,-6.6185963E-1,-1.8148809E-5,9.4576305E-1,1.3091841E0,-1.7983903E-4,6.838316E-1,4.17322E-8,-1.1104494E-4,1.00003504E-4,7.2831637E-1,-1.5544696E-4,-5.4463027E-5,-5.8096185E-2,1.4365482E0,6.2039103E-2,1.499272E-4,2.2268312E-5,-1.07614156E-4,-9.084701E-5,1.8188457E-5,-1.1107184E-4,-1.594186E-8,1.1109457E-4,-1.1924506E-8,1.03927574E-4,-4.8047852E-8],"split_indices":[7,3,4,7,4,2,4,6,0,0,2,4,0,7,0,0,6,0,0,0,4,0,0,6,7,0,0,0,0,0,0,0,0,0,0,0,0],"split_type":[0,0,0,0,0,0,0,0,0,0,0,0,0,0,0,0,0,0,0,0,0,0,0,0,0,0,0,0,0,0,0,0,0,0,0,0,0],"sum_hessian":[6.499997E1,3.7749977E1,2.7249992E1,2.5749983E1,1.1999995E1,6.9999967E0,2.0249996E1,2.2499983E1,3.2499988E0,3.7499974E0,8.249998E0,5.249997E0,1.7499996E0,5.499999E0,1.4749996E1,1.8999985E1,3.4999986E0,1.9999993E0,1.2499994E0,1.9999998E0,6.249998E0,3.499998E0,1.7499992E0,2.7499995E0,2.7499995E0,9.749998E0,4.999999E0,1.2499995E0,2.249999E0,4.4999986E0,1.7499998E0,1.2499998E0,1.4999998E0,1.25E0,1.4999996E0,5.2499986E0,4.499999E0],"tree_param":{"num_deleted":"0","num_feature":"8","num_nodes":"37","size_leaf_vector":"0"}},{"base_weights":[-7.278885E-1,-1.2695556E0,7.994199E-1,-1.6598691E0,-4.2381403E-1,-1.5711787E-4,1.3324863E0,-1.7102942E0,-2.2179899E-1,-1.046735E0,5.711121E-1,-6.000036E-1,7.496903E-1,1.8174246E-1,1.5418645E0,-1.5282441E0,6.6645217E-1,-3.999451E-1,1.293548E0,3.998077E-1,-1.142725E0,3.3736233E-5,1.1994708E0,-7.9985267E-1,2.2215012E-1],"categories":[],"categories_nodes":[],"categories_segments":[],"categories_sizes":[],"default_left":[true,true,true,true,true,true,true,false,false,true,true,true,true,false,false,false,false,true,false,false,false,false,false,false,false],"id":12,"left_children":[1,3,5,7,9,11,13,-1,-1,15,17,19,21,-1,-1,-1,-1,23,-1,-1,-1,-1,-1,-1,-1],"loss_changes":[5.4375256E1,1.5141525E1,7.4591904E0,1.9773941E0,1.0823847E1,4.0481634E0,2.2496548E0,0E0,0E0,9.68011E0,5.428034E0,3.1699643E0,1.3486826E0,0E0,0E0,0E0,0E0,1.1106145E0,0E0,0E0,0E0,0E0,0E0,0E0,0E0],"parents":[2147483647,0,0,1,1,2,2,3,3,4,4,5,5,6,6,9,9,10,10,11,11,12,12,17,17],"right_children":[2,4,6,8,10,12,14,-1,-1,16,18,20,22,-1,-1,-1,-1,24,-1,-1,-1,-1,-1,-1,-1],"split_conditions":[5.474266E-1,-2.3212135E-1,1.0341015E0,1.5335877E0,-1.5634108E-1,1.1420772E0,-6.247495E-1,-1.7102942E-4,-2.2179898E-5,1.4186409E-1,1.4443943E-1,2.6981639E-2,-2.3312393E-1,1.8174245E-5,1.5418645E-4,-1.528244E-4,6.664522E-5,3.5760278E-1,1.293548E-4,3.998077E-5,-1.14272494E-4,3.3736232E-9,1.1994707E-4,-7.9985264E-5,2.2215012E-5],"split_indices":[1,7,1,5,4,7,7,0,0,1,5,2,5,0,0,0,0,4,0,0,0,0,0,0,0],"split_type":[0,0,0,0,0,0,0,0,0,0,0,0,0,0,0,0,0,0,0,0,0,0,0,0,0],"sum_hessian":[6.3499966E1,4.699997E1,1.6499996E1,3.1499973E1,1.5499995E1,6.9999986E0,9.499997E0,3.0249973E1,1.2499996E0,9.499996E0,5.999999E0,3.999999E0,2.9999995E0,1.7499998E0,7.749997E0,7.499996E0,1.9999998E0,2.7499995E0,3.2499995E0,1.4999998E0,2.4999995E0,1.4999998E0,1.4999996E0,1.4999999E0,1.2499998E0],"tree_param":{"num_deleted":"0","num_feature":"8","num_nodes":"25","size_leaf_vector":"0"}},{"base_weights":[-6.9238347E-1,-1.5726103E0,-1.6126047E-1,-1.7383245E0,-6.6544634E-1,-8.343838E-1,4.6457407E-1,-6.6537243E-1,-1.8241525E0,-9.9883157E-1,-1.5295343E-1,-1.2439694E0,4.6853634E-4,-1.9345224E-1,7.788202E-1,-1.4271277E0,-3.9940155E-1,1.2000363E0,-4.9942952E-1,6.666986E-1,-4.6143493E-1,3.8024455E-1,1.4276248E0,-1.5659939E0,-2.219546E-1,-1.1103622E0,4.0022355E-1,6.664725E-1,-9.465559E-1,-8.2320607E-1,1.5363035E-1,1.2370472E0,-4.0030867E-1],"categories":[],"categories_nodes":[],"categories_segments":[],"categories_sizes":[],"default_left":[true,true,true,true,true,true,true,false,false,false,false,true,true,true,true,true,true,false,true,false,true,true,false,false,false,false,false,false,false,false,false,false,false],"id":13,"left_children":[1,3,5,7,9,11,13,-1,-1,-1,-1,15,17,19,21,23,25,-1,27,-1,29,31,-1,-1,-1,-1,-1,-1,-1,-1,-1,-1,-1],"loss_changes":[2.908255E1,2.3759918E0,1.7343496E1,5.589752E-1,7.4422693E-1,6.7539663E0,4.5964813E0,0E0,0E0,0E0,0E0,1.4796371E0,5.0967946E0,2.0940557E0,3.2714682E0,1.4096756E0,2.5762746E0,0E0,3.758686E0,0E0,1.5728027E0,7.51739E0,0E0,0E0,0E0,0E0,0E0,0E0,0E0,0E0,0E0,0E0,0E0],"parents":[2147483647,0,0,1,1,2,2,3,3,4,4,5,5,6,6,11,11,12,12,13,13,14,14,15,15,16,16,18,18,20,20,21,21],"right_children":[2,4,6,8,10,12,14,-1,-1,-1,-1,16,18,20,22,24,26,-1,28,-1,30,32,-1,-1,-1,-1,-1,-1,-1,-1,-1,-1,-1],"split_conditions":[-5.102041E-1,4.476319E-1,-2.3212135E-1,-8.733196E-1,-1.8325707E-1,5.098154E-1,-1.1842717E-1,-6.653724E-5,-1.8241524E-4,-9.988315E-5,-1.5295343E-5,-4.2843542E-1,-2.1531823E-1,-5.615334E-1,1.3091841E0,1.7267154E0,-9.246446E-1,1.2000363E-4,7.0023715E-1,6.6669854E-5,-2.3318322E-2,6.2039103E-2,1.4276248E-4,-1.5659939E-4,-2.219546E-5,-1.11036214E-4,4.0022354E-5,6.664725E-5,-9.465559E-5,-8.232061E-5,1.5363034E-5,1.2370471E-4,-4.0030867E-5],"split_indices":[4,6,7,0,5,3,4,0,0,0,0,7,4,0,0,4,6,0,3,0,6,0,0,0,0,0,0,0,0,0,0,0,0],"split_type":[0,0,0,0,0,0,0,0,0,0,0,0,0,0,0,0,0,0,0,0,0,0,0,0,0,0,0,0,0,0,0,0,0],"sum_hessian":[6.174996E1,2.2499977E1,3.9249985E1,1.8249979E1,4.249997E0,1.8749989E1,2.0499994E1,1.9999981E0,1.624998E1,1.9999985E0,2.2499988E0,1.2249991E1,6.499998E0,6.7499986E0,1.3749995E1,9.499992E0,2.749999E0,1.4999998E0,4.999998E0,1.2499999E0,5.4999986E0,9.499997E0,4.249998E0,8.249992E0,1.2499998E0,1.2499994E0,1.4999995E0,1.2499998E0,3.7499986E0,3.249999E0,2.2499995E0,4.249998E0,5.249999E0],"tree_param":{"num_deleted":"0","num_feature":"8","num_nodes":"33","size_leaf_vector":"0"}},{"base_weights":[-6.555054E-1,-1.3233869E0,4.074363E-1,-1.4613397E0,3.9984584E-1,-8.946562E-2,1.1990035E0,-1.5739162E0,-4.7536623E-1,7.996503E-1,-2.2209069E-1,-1.1991918E0,2.1417283E-1,1.4987992E0,-1.1922917E-4,-1.7978998E0,-1.1415169E0,1.339583E-1,-1.1992064E0,5.304271E-1,-1.272477E0,1.6787394E0,5.448262E-1,-1.7124285E0,-4.9927986E-1,-6.655642E-1,7.999449E-1,-4.4395384E-1,9.7091705E-1],"categories":[],"categories_nodes":[],"categories_segments":[],"categories_sizes":[],"default_left":[true,true,true,true,true,true,true,true,true,false,false,false,true,true,false,false,true,true,false,true,false,false,false,false,false,false,false,false,false],"id":14,"left_children":[1,3,5,7,9,11,13,15,17,-1,-1,-1,19,21,-1,-1,23,25,-1,27,-1,-1,-1,-1,-1,-1,-1,-1,-1],"loss_changes":[4.650643E1,1.0093292E1,1.0235546E1,3.3864594E0,1.1100435E0,5.900839E0,3.5950956E0,1.1437302E0,2.4761736E0,0E0,0E0,0E0,7.257186E0,4.5864296E-1,0E0,0E0,4.278261E0,2.5291808E0,0E0,5.6888027E0,0E0,0E0,0E0,0E0,0E0,0E0,0E0,0E0,0E0],"parents":[2147483647,0,0,1,1,2,2,3,3,4,4,5,5,6,6,7,7,8,8,12,12,13,13,16,16,17,17,19,19],"right_children":[2,4,6,8,10,12,14,16,18,-1,-1,-1,20,22,-1,-1,24,26,-1,28,-1,-1,-1,-1,-1,-1,-1,-1,-1],"split_conditions":[1.580866E-1,1.1420772E0,1.0665466E0,8.282545E-1,1.7768635E0,-6.803206E-1,1.6466751E0,-5.2659243E-1,1.3090184E0,7.996503E-5,-2.220907E-5,-1.19919176E-4,9.692116E-1,1.7310193E0,-1.1922917E-8,-1.7978997E-4,-5.691812E-1,1.2897187E-1,-1.1992063E-4,-3.302784E-1,-1.272477E-4,1.6787394E-4,5.4482618E-5,-1.7124283E-4,-4.9927985E-5,-6.6556415E-5,7.999448E-5,-4.4395383E-5,9.70917E-5],"split_indices":[1,7,1,2,0,3,4,7,2,0,0,0,1,7,0,0,4,3,0,7,0,0,0,0,0,0,0,0,0],"split_type":[0,0,0,0,0,0,0,0,0,0,0,0,0,0,0,0,0,0,0,0,0,0,0,0,0,0,0,0,0],"sum_hessian":[6.3749954E1,3.899996E1,2.4749992E1,3.624996E1,2.7499993E0,1.5749996E1,8.999996E0,3.1999966E1,4.2499976E0,1.4999998E0,1.2499995E0,2.7499988E0,1.2999997E1,6.999996E0,1.9999998E0,1.8999977E1,1.29999895E1,2.7499983E0,1.4999993E0,1.1249997E1,1.7499998E0,5.2499967E0,1.7499995E0,5.999993E0,6.9999967E0,1.2499988E0,1.4999995E0,3.4999993E0,7.749998E0],"tree_param":{"num_deleted":"0","num_feature":"8","num_nodes":"29","size_leaf_vector":"0"}},{"base_weights":[-6.76657E-1,-1.2910714E0,5.406433E-1,-1.7531848E0,-5.703375E-1,-8.335156E-2,1.2184283E0,-1.8221388E0,-5.452257E-1,-1.3315462E0,2.1084274E-1,2.4375111E-1,-1.2722427E0,1.8170385E-1,1.4104947E0,-1.5843647E0,-1.808264E-1,-8.224153E-1,8.797232E-1,-9.082633E-1,5.87785E-1,-2.2141053E-1,-9.990304E-1,1.1995664E0,-2.2202781E-1,-2.863944E-4,1.1105788E0],"categories":[],"categories_nodes":[],"categories_segments":[],"categories_sizes":[],"default_left":[true,true,true,true,true,true,true,false,false,true,true,true,false,false,false,false,false,true,true,false,true,false,false,false,false,false,false],"id":15,"left_children":[1,3,5,7,9,11,13,-1,-1,15,17,19,-1,-1,-1,-1,-1,21,23,-1,25,-1,-1,-1,-1,-1,-1],"loss_changes":[4.65085E1,1.2655571E1,9.088909E0,1.0472183E0,1.068696E1,4.976783E0,1.784688E0,0E0,0E0,2.331811E0,7.289193E0,4.5962653E0,0E0,0E0,0E0,0E0,0E0,2.2992659E-1,2.468759E0,0E0,2.613558E0,0E0,0E0,0E0,0E0,0E0,0E0],"parents":[2147483647,0,0,1,1,2,2,3,3,4,4,5,5,6,6,9,9,10,10,11,11,17,17,18,18,20,20],"right_children":[2,4,6,8,10,12,14,-1,-1,16,18,20,-1,-1,-1,-1,-1,22,24,-1,26,-1,-1,-1,-1,-1,-1],"split_conditions":[3.5275656E-1,-4.215633E-2,1.0341015E0,1.6209702E0,-4.2843542E-1,9.692116E-1,-6.247495E-1,-1.8221387E-4,-5.4522567E-5,7.0023715E-1,-6.205933E-1,-7.2290653E-1,-1.2722427E-4,1.8170385E-5,1.4104946E-4,-1.5843647E-4,-1.808264E-5,1.1142826E-1,1.3090184E0,-9.082633E-5,5.077454E-1,-2.2141052E-5,-9.990304E-5,1.1995663E-4,-2.2202781E-5,-2.8639441E-8,1.11057874E-4],"split_indices":[1,6,1,0,7,1,7,0,0,3,1,7,0,0,0,0,0,7,2,0,2,0,0,0,0,0,0],"split_type":[0,0,0,0,0,0,0,0,0,0,0,0,0,0,0,0,0,0,0,0,0,0,0,0,0,0,0],"sum_hessian":[6.024995E1,3.9999958E1,2.0249992E1,2.3499971E1,1.6499987E1,1.0999997E1,9.249995E0,2.1749971E1,1.7499993E0,7.9999914E0,8.499996E0,9.249997E0,1.7499996E0,1.7499998E0,7.4999957E0,6.2499924E0,1.7499988E0,3.2499976E0,5.2499986E0,1.749999E0,7.4999986E0,1.2499993E0,1.9999985E0,3.9999993E0,1.2499994E0,3.9999993E0,3.499999E0],"tree_param":{"num_deleted":"0","num_feature":"8","num_nodes":"27","size_leaf_vector":"0"}},{"base_weights":[-6.496075E-1,-1.3172268E0,2.1407706E-1,-1.6809174E0,-3.6264408E-1,-1.1709968E0,6.659255E-1,-1.7730249E0,-7.483396E-1,-9.615942E-1,4.7650942E-1,-4.989909E-1,-1.5279441E0,-1.3687784E-5,9.1961753E-1,-2.2089429E-1,-9.0776205E-1,-1.2364911E0,3.2632356E-4,1.0003439E0,-1.5364848E-1,-1.1098027E0,1.8221521E-1,-5.880028E-1,6.6637754E-1,-2.2233883E-1,1.0333958E0,-9.995299E-1,2.2203453E-1,1.1108675E0,-2.1452908E-4,6.6567034E-1,1.59894E0],"categories":[],"categories_nodes":[],"categories_segments":[],"categories_sizes":[],"default_left":[true,true,true,true,true,true,true,false,true,true,true,true,false,true,true,false,false,false,false,false,false,false,false,true,true,false,true,false,false,false,false,false,false],"id":16,"left_children":[1,3,5,7,9,11,13,-1,15,17,19,21,-1,23,25,-1,-1,-1,-1,-1,-1,-1,-1,27,29,-1,31,-1,-1,-1,-1,-1,-1],"loss_changes":[3.617608E1,1.162825E1,1.8303406E1,8.4207916E-1,5.986927E0,9.766302E-1,3.674531E0,0E0,1.3582659E-1,1.7852964E0,1.8867177E0,1.8665766E0,0E0,3.1346467E0,2.2761574E0,0E0,0E0,0E0,0E0,0E0,0E0,0E0,0E0,1.6386772E0,1.1113385E0,0E0,1.9511242E0,0E0,0E0,0E0,0E0,0E0,0E0],"parents":[2147483647,0,0,1,1,2,2,3,3,4,4,5,5,6,6,8,8,9,9,10,10,11,11,13,13,14,14,23,23,24,24,26,26],"right_children":[2,4,6,8,10,12,14,-1,16,18,20,22,-1,24,26,-1,-1,-1,-1,-1,-1,-1,-1,28,30,-1,32,-1,-1,-1,-1,-1,-1],"split_conditions":[-2.3212135E-1,3.1939363E-1,-4.0910032E-1,4.6501207E-1,-2.3778181E-1,5.040564E-1,-1.1842717E-1,-1.7730249E-4,-5.607559E-1,6.68E-1,8.2120395E-1,1.3271231E-2,-1.5279441E-4,9.4576305E-1,-1.1087695E0,-2.2089429E-5,-9.07762E-5,-1.2364911E-4,3.2632354E-8,1.0003439E-4,-1.5364847E-5,-1.1098027E-4,1.822152E-5,6.5263176E-1,1.4365482E0,-2.2233882E-5,8.282545E-1,-9.995299E-5,2.2203452E-5,1.11086745E-4,-2.1452907E-8,6.656703E-5,1.59894E-4],"split_indices":[7,3,4,5,6,7,4,0,4,2,5,7,0,7,3,0,0,0,0,0,0,0,0,3,7,0,2,0,0,0,0,0,0],"split_type":[0,0,0,0,0,0,0,0,0,0,0,0,0,0,0,0,0,0,0,0,0,0,0,0,0,0,0,0,0,0,0,0,0],"sum_hessian":[6.1249943E1,3.4249954E1,2.6999987E1,2.4249964E1,9.999992E0,6.2499943E0,2.0749992E1,2.1249968E1,2.9999957E0,5.7499943E0,4.249998E0,2.9999974E0,3.2499967E0,5.999998E0,1.4749993E1,1.2499981E0,1.7499976E0,4.2499948E0,1.4999996E0,1.999999E0,2.249999E0,1.2499982E0,1.7499992E0,3.2499988E0,2.7499995E0,1.2499995E0,1.3499994E1,1.9999992E0,1.2499998E0,1.2499999E0,1.4999995E0,9.499996E0,3.9999979E0],"tree_param":{"num_deleted":"0","num_feature":"8","num_nodes":"33","size_leaf_vector":"0"}},{"base_weights":[-6.656045E-1,-1.2950834E0,6.334973E-1,-1.6445938E0,-6.856748E-1,-7.364275E-1,9.841627E-1,-1.7087969E0,-2.2169907E-1,-1.3317018E0,3.4452572E-1,-1.3325493E0,1.8167913E-1,4.702126E-1,1.3500453E0,-1.5657635E0,2.2241925E-1,-5.713643E-1,9.468604E-1,-3.9990103E-1,1.3325139E0,1.4986414E0,2.2168353E-1,2.2237709E-1,1.142068E0,4.0001476E-1,-8.5701203E-1],"categories":[],"categories_nodes":[],"categories_segments":[],"categories_sizes":[],"default_left":[true,true,true,true,true,true,true,false,false,true,true,false,false,true,true,false,false,false,true,true,false,false,false,false,false,false,false],"id":17,"left_children":[1,3,5,7,9,11,13,-1,-1,15,17,-1,-1,19,21,-1,-1,-1,23,25,-1,-1,-1,-1,-1,-1,-1],"loss_changes":[5.049913E1,7.6583633E0,1.0572657E1,1.9506912E0,1.1606546E1,2.841787E0,2.5149498E0,0E0,0E0,4.167736E0,4.540625E0,0E0,0E0,6.9104233E0,1.2187252E0,0E0,0E0,0E0,4.177971E-1,2.1710687E0,0E0,0E0,0E0,0E0,0E0,0E0,0E0],"parents":[2147483647,0,0,1,1,2,2,3,3,4,4,5,5,6,6,9,9,10,10,13,13,14,14,18,18,19,19],"right_children":[2,4,6,8,10,12,14,-1,-1,16,18,-1,-1,20,22,-1,-1,-1,24,26,-1,-1,-1,-1,-1,-1,-1],"split_conditions":[3.0408907E-1,-3.302784E-1,-4.824582E-1,1.6546929E0,-9.315125E-2,7.4209654E-1,1.0665466E0,-1.7087968E-4,-2.2169907E-5,9.31966E-2,1.6210362E-2,-1.3325493E-4,1.8167913E-5,1.1420772E0,1.5407114E0,-1.5657634E-4,2.2241924E-5,-5.7136425E-5,-1.3396432E-1,-5.314565E-2,1.332514E-4,1.4986414E-4,2.2168353E-5,2.223771E-5,1.142068E-4,4.0001476E-5,-8.57012E-5],"split_indices":[1,7,5,5,4,1,1,0,0,1,5,0,0,7,5,0,0,0,7,2,0,0,0,0,0,0,0],"split_type":[0,0,0,0,0,0,0,0,0,0,0,0,0,0,0,0,0,0,0,0,0,0,0,0,0,0,0],"sum_hessian":[5.9749935E1,4.0249947E1,1.949999E1,2.4499958E1,1.5749989E1,3.7499983E0,1.5749992E1,2.3249958E1,1.2499996E0,9.49999E0,6.2499976E0,1.999999E0,1.7499994E0,7.4999976E0,8.249994E0,8.24999E0,1.2499994E0,2.4999993E0,3.7499983E0,3.999999E0,3.4999986E0,6.9999948E0,1.2499996E0,1.2499993E0,2.499999E0,1.4999998E0,2.4999993E0],"tree_param":{"num_deleted":"0","num_feature":"8","num_nodes":"27","size_leaf_vector":"0"}},{"base_weights":[-8.09985E-1,-1.1344566E0,9.9882394E-1,-1.6181768E0,-5.339685E-1,1.3533989E0,-1.5403084E-1,-1.7356817E0,-1.5312235E-1,-1.1318519E0,3.1067282E-1,2.2187261E-1,1.536866E0,-1.4399546E0,-2.8538457E-1,-5.4274864E-2,1.3323706E0,-1.5769452E0,-2.2157091E-1,5.4550546E-1,-8.566883E-1,-4.6148327E-1,6.6602635E-1],"categories":[],"categories_nodes":[],"categories_segments":[],"categories_sizes":[],"default_left":[true,true,true,true,true,true,false,false,false,true,true,false,false,true,true,true,false,false,false,false,false,false,false],"id":18,"left_children":[1,3,5,7,9,11,-1,-1,-1,13,15,-1,-1,17,19,21,-1,-1,-1,-1,-1,-1,-1],"loss_changes":[3.7668056E1,1.4603355E1,4.296197E0,4.7266006E0,1.3102802E1,1.2678928E0,0E0,0E0,0E0,3.5010395E0,4.2670584E0,0E0,0E0,1.4448414E0,2.9594533E0,3.020502E0,0E0,0E0,0E0,0E0,0E0,0E0,0E0],"parents":[2147483647,0,0,1,1,2,2,3,3,4,4,5,5,9,9,10,10,13,13,14,14,15,15],"right_children":[2,4,6,8,10,12,-1,-1,-1,14,16,-1,-1,18,20,22,-1,-1,-1,-1,-1,-1,-1],"split_conditions":[1.0341015E0,-4.2843542E-1,1.6466751E0,1.298501E0,-9.315125E-2,-4.512269E-1,-1.5403084E-5,-1.7356816E-4,-1.5312235E-5,1.4186409E-1,8.924423E-1,2.2187261E-5,1.5368659E-4,1.3228748E0,4.0142405E-1,5.7080346E-1,1.3323706E-4,-1.5769452E-4,-2.215709E-5,5.4550546E-5,-8.566883E-5,-4.6148325E-5,6.660263E-5],"split_indices":[1,7,4,5,4,4,0,0,0,1,5,0,0,6,1,6,0,0,0,0,0,0,0],"split_type":[0,0,0,0,0,0,0,0,0,0,0,0,0,0,0,0,0,0,0,0,0,0,0],"sum_hessian":[6.1249928E1,5.224993E1,8.999994E0,2.7999949E1,2.4249983E1,6.7499948E0,2.2499998E0,2.574995E1,2.249999E0,1.3999987E1,1.0249996E1,1.2499998E0,5.4999948E0,9.749988E0,4.249999E0,8.249997E0,1.9999989E0,8.499989E0,1.2499994E0,1.7499998E0,2.4999995E0,5.4999986E0,2.749999E0],"tree_param":{"num_deleted":"0","num_feature":"8","num_nodes":"23","size_leaf_vector":"0"}},{"base_weights":[-6.967553E-1,-9.982888E-1,1.0756638E0,-1.501807E0,-4.4972444E-1,1.4651053E0,-1.5402019E-1,-1.6126299E0,-1.5313075E-1,-7.516418E-1,9.0833026E-1,2.2184417E-1,1.6782627E0,-1.7304991E0,-6.6492194E-1,-1.4983412E0,-4.6496585E-1,-2.2240408E-1,1.2932297E0,-9.984714E-1,1.3063083E-3,-9.6630096E-1,-8.667796E-2],"categories":[],"categories_nodes":[],"categories_segments":[],"categories_sizes":[],"default_left":[true,true,true,true,true,true,false,true,false,true,true,false,false,false,true,false,true,false,false,false,false,false,false],"id":19,"left_children":[1,3,5,7,9,11,-1,13,-1,15,17,-1,-1,-1,19,-1,21,-1,-1,-1,-1,-1,-1],"loss_changes":[3.514457E1,1.4516247E1,4.8948307E0,3.9754105E0,1.2060797E1,1.6152611E0,0E0,1.7536926E0,0E0,4.2802324E0,2.6813226E0,0E0,0E0,0E0,1.0012938E0,0E0,3.3773346E0,0E0,0E0,0E0,0E0,0E0,0E0],"parents":[2147483647,0,0,1,1,2,2,3,3,4,4,5,5,7,7,9,9,10,10,14,14,16,16],"right_children":[2,4,6,8,10,12,-1,14,-1,16,18,-1,-1,-1,20,-1,22,-1,-1,-1,-1,-1,-1],"split_conditions":[1.0341015E0,-4.0488768E-1,1.6466751E0,1.4186409E-1,1.3091841E0,-4.3016362E-1,-1.5402018E-5,6.649935E-1,-1.5313075E-5,-6.035634E-1,-5.131066E-1,2.2184417E-5,1.6782626E-4,-1.730499E-4,-7.990408E-1,-1.4983412E-4,-6.9028385E-2,-2.2240407E-5,1.2932297E-4,-9.984714E-5,1.3063082E-7,-9.6630094E-5,-8.667796E-6],"split_indices":[1,4,4,1,0,4,0,6,0,5,6,0,0,0,1,0,1,0,0,0,0,0,0],"split_type":[0,0,0,0,0,0,0,0,0,0,0,0,0,0,0,0,0,0,0,0,0,0,0],"sum_hessian":[6.2749916E1,5.3999924E1,8.749993E0,2.7249945E1,2.6749979E1,6.499994E0,2.2499998E0,2.4999947E1,2.2499986E0,2.224998E1,4.499998E0,1.2499998E0,5.2499943E0,2.149995E1,3.4999952E0,4.9999933E0,1.7249987E1,1.2499998E0,3.2499986E0,1.9999973E0,1.4999981E0,6.749992E0,1.0499995E1],"tree_param":{"num_deleted":"0","num_feature":"8","num_nodes":"23","size_leaf_vector":"0"}},{"base_weights":[-6.299233E-1,-1.3556442E0,5.137561E-1,-1.6192265E0,-3.5827297E-1,-7.357662E-1,7.5471044E-1,-1.6813343E0,-8.2174397E-1,-1.3979648E0,6.081142E-1,-1.4268391E0,6.662425E-1,-7.996551E-1,9.0381545E-1,-1.8017228E-1,-1.1987747E0,1.0762439E0,-3.2455585E-4,1.3090034E-4,1.0259279E0,-6.666709E-1,6.661661E-1,-2.2218204E-1,2.2238569E-1,6.662389E-1,1.3920584E0],"categories":[],"categories_nodes":[],"categories_segments":[],"categories_sizes":[],"default_left":[true,true,true,true,true,true,true,false,true,false,true,false,false,false,true,false,false,false,true,true,true,false,false,false,false,false,false],"id":20,"left_children":[1,3,5,7,9,11,13,-1,15,-1,17,-1,-1,-1,19,-1,-1,-1,21,23,25,-1,-1,-1,-1,-1,-1],"loss_changes":[5.5268364E1,1.0066872E1,8.458577E0,1.9094849E-1,1.0646377E1,5.552845E0,5.937419E0,0E0,8.120549E-1,0E0,1.6381114E0,0E0,0E0,0E0,2.3172379E0,0E0,0E0,0E0,1.9985112E0,2.2234547E-1,1.5088768E0,0E0,0E0,0E0,0E0,0E0,0E0],"parents":[2147483647,0,0,1,1,2,2,3,3,4,4,5,5,6,6,8,8,10,10,14,14,18,18,19,19,20,20],"right_children":[2,4,6,8,10,12,14,-1,16,-1,18,-1,-1,-1,20,-1,-1,-1,22,24,26,-1,-1,-1,-1,-1,-1],"split_conditions":[1.580866E-1,-5.9450008E-2,-7.2290653E-1,8.282545E-1,-2.3212135E-1,1.180104E0,-1.2039804E0,-1.6813343E-4,-2.8119987E-1,-1.3979648E-4,2.586638E-1,-1.426839E-4,6.662425E-5,-7.99655E-5,-4.3016362E-1,-1.8017228E-5,-1.1987747E-4,1.07624386E-4,1.153291E0,-6.871356E-1,1.0665466E0,-6.666709E-5,6.661661E-5,-2.2218203E-5,2.2238568E-5,6.662389E-5,1.3920583E-4],"split_indices":[1,4,7,2,7,1,3,0,7,0,7,0,0,0,4,0,0,0,0,4,1,0,0,0,0,0,0],"split_type":[0,0,0,0,0,0,0,0,0,0,0,0,0,0,0,0,0,0,0,0,0,0,0,0,0,0,0],"sum_hessian":[6.47499E1,3.949992E1,2.5249983E1,3.074993E1,8.749991E0,3.7499957E0,2.1499987E1,2.7499935E1,3.249995E0,3.9999926E0,4.7499986E0,2.4999962E0,1.2499996E0,1.4999994E0,1.9999987E1,1.7499967E0,1.4999983E0,2.2499993E0,2.4999995E0,2.4999993E0,1.7499989E1,1.2499999E0,1.2499996E0,1.2499998E0,1.2499995E0,1.0249997E1,7.249991E0],"tree_param":{"num_deleted":"0","num_feature":"8","num_nodes":"27","size_leaf_vector":"0"}},{"base_weights":[-6.816066E-1,-1.6249253E0,-1.7031565E-1,-3.3189353E-1,-1.7405238E0,-1.0251062E0,5.098515E-1,-1.553026E0,-1.8096118E-1,2.0837855E-1,1.0956347E0,-5.440624E-1,-1.681618E0,8.004858E-1,-5.176511E-1,7.769062E-1,-4.0020725E-1,-2.2185148E-1,1.3831286E0,-1.1988633E0,-9.4664164E-2,1.2582068E0,-4.6176618E-1,-6.665872E-1,3.3255008E-1],"categories":[],"categories_nodes":[],"categories_segments":[],"categories_sizes":[],"default_left":[true,true,true,false,false,true,true,true,true,true,true,false,false,false,true,true,true,false,false,false,false,false,false,false,false],"id":21,"left_children":[1,3,5,-1,-1,7,9,11,13,15,17,-1,-1,-1,19,21,23,-1,-1,-1,-1,-1,-1,-1,-1],"loss_changes":[2.9385288E1,2.6359825E0,2.4360044E1,0E0,0E0,7.9633064E0,3.9217386E0,5.447197E-1,3.1405277E0,6.106384E0,3.2423086E0,0E0,0E0,0E0,1.8314804E0,5.9465566E0,1.9296014E0,0E0,0E0,0E0,0E0,0E0,0E0,0E0,0E0],"parents":[2147483647,0,0,1,1,2,2,5,5,6,6,7,7,8,8,9,9,10,10,14,14,15,15,16,16],"right_children":[2,4,6,-1,-1,8,10,12,14,16,18,-1,-1,-1,20,22,24,-1,-1,-1,-1,-1,-1,-1,-1],"split_conditions":[-5.102041E-1,-8.733196E-1,-3.302784E-1,-3.3189353E-5,-1.7405237E-4,3.1939363E-1,1.3091841E0,-8.733196E-1,-1.8161699E-1,6.2039103E-2,-2.8693336E-1,-5.4406235E-5,-1.6816179E-4,8.004858E-5,-2.153612E-2,6.00365E-1,9.9739784E-1,-2.2185148E-5,1.3831285E-4,-1.19886325E-4,-9.4664165E-6,1.2582068E-4,-4.6176618E-5,-6.6658715E-5,3.3255008E-5],"split_indices":[4,0,7,0,0,3,0,0,4,0,4,0,0,0,4,5,0,0,0,0,0,0,0,0,0],"split_type":[0,0,0,0,0,0,0,0,0,0,0,0,0,0,0,0,0,0,0,0,0,0,0,0,0],"sum_hessian":[6.04999E1,2.0499947E1,3.9999954E1,1.9999964E0,1.8499949E1,1.7499971E1,2.2499983E1,1.0249977E1,7.2499948E0,1.5749989E1,6.7499943E0,1.7499969E0,8.49998E0,1.4999992E0,5.7499957E0,7.999993E0,7.7499957E0,1.2499995E0,5.4999948E0,1.4999982E0,4.2499976E0,5.7499948E0,2.249998E0,5.7499976E0,1.9999986E0],"tree_param":{"num_deleted":"0","num_feature":"8","num_nodes":"25","size_leaf_vector":"0"}},{"base_weights":[-6.492102E-1,-1.3522143E0,4.8918062E-1,-1.6034508E0,-3.7762874E-1,-9.08164E-1,8.489914E-1,-1.7110369E0,-9.97835E-1,-1.5977436E0,8.563131E-1,-1.4985797E0,3.9976612E-1,-1.9955686E-1,1.1236008E0,-1.8039117E0,-9.451022E-1,-2.839539E-1,-1.3313345E0,1.3324513E0,1.5331993E-1,1.1105316E0,-9.323949E-1,7.0521116E-1,1.4098024E0,-3.31494E-1,-1.270819E0,2.2356018E-1,-6.652662E-1,-1.1988679E0,-2.219161E-1,1.1419954E0,-7.998692E-1],"categories":[],"categories_nodes":[],"categories_segments":[],"categories_sizes":[],"default_left":[true,true,true,true,true,true,true,true,true,false,true,false,false,true,true,false,true,true,false,false,false,false,true,true,false,false,false,false,false,false,false,false,false],"id":22,"left_children":[1,3,5,7,9,11,13,15,17,-1,19,-1,-1,21,23,-1,25,27,-1,-1,-1,-1,29,31,-1,-1,-1,-1,-1,-1,-1,-1,-1],"loss_changes":[5.047965E1,8.882462E0,1.3089115E1,2.799225E-1,1.5294498E1,4.846302E0,5.983042E0,3.794861E-2,1.2885122E0,0E0,1.5529981E0,0E0,0E0,5.835864E0,9.2169E-1,0E0,5.280762E-1,8.2605094E-1,0E0,0E0,0E0,0E0,4.4391465E-1,6.501307E0,0E0,0E0,0E0,0E0,0E0,0E0,0E0,0E0,0E0],"parents":[2147483647,0,0,1,1,2,2,3,3,4,4,5,5,6,6,7,7,8,8,10,10,13,13,14,14,16,16,17,17,22,22,23,23],"right_children":[2,4,6,8,10,12,14,16,18,-1,20,-1,-1,22,24,-1,26,28,-1,-1,-1,-1,30,32,-1,-1,-1,-1,-1,-1,-1,-1,-1],"split_conditions":[1.580866E-1,-4.6855034E-3,-4.967059E-1,7.0023715E-1,-2.3212135E-1,7.4209654E-1,-6.247495E-1,2.0855397E-1,4.8638362E-1,-1.5977435E-4,7.49449E-1,-1.4985797E-4,3.997661E-5,3.2390153E-1,1.0665466E0,-1.8039116E-4,6.2886035E-1,-3.7935692E-1,-1.3313345E-4,1.3324514E-4,1.5331992E-5,1.1105315E-4,1.0016565E0,9.692116E-1,1.4098024E-4,-3.31494E-5,-1.2708189E-4,2.2356018E-5,-6.652662E-5,-1.1988679E-4,-2.2191609E-5,1.1419954E-4,-7.9986916E-5],"split_indices":[1,4,5,3,7,1,7,5,5,0,7,0,0,4,1,0,5,7,0,0,0,0,1,1,0,0,0,0,0,0,0,0,0],"split_type":[0,0,0,0,0,0,0,0,0,0,0,0,0,0,0,0,0,0,0,0,0,0,0,0,0,0,0,0,0,0,0,0,0],"sum_hessian":[6.124989E1,3.774991E1,2.349998E1,2.9499918E1,8.2499895E0,4.499996E0,1.8999983E1,2.349993E1,5.999989E0,3.9999914E0,4.2499986E0,2.9999967E0,1.4999996E0,3.9999974E0,1.4999987E1,1.9749937E1,3.749992E0,2.4999955E0,3.4999936E0,1.999999E0,2.2499993E0,1.2499994E0,2.749998E0,7.4999967E0,7.4999895E0,1.9999958E0,1.749996E0,1.249998E0,1.2499976E0,1.4999985E0,1.2499996E0,5.999997E0,1.4999995E0],"tree_param":{"num_deleted":"0","num_feature":"8","num_nodes":"33","size_leaf_vector":"0"}},{"base_weights":[-7.8442997E-1,-1.3722011E0,1.7775771E-1,-1.4707519E0,3.3350596E-1,-8.376799E-1,5.935351E-1,-1.6633608E0,-6.653057E-1,-1.4527198E0,4.6090367E-1,1.2294788E0,2.2990672E-1,-1.2363597E0,1.0592341E-1,1.4273117E0,2.2143386E-1,-2.1081257E-1,1.1092244E0,-1.4981446E0,-2.2147095E-1,8.001701E-1,-4.6070465E-1,-8.572075E-1,4.7573724E-1,2.2126311E-1,1.3826672E0],"categories":[],"categories_nodes":[],"categories_segments":[],"categories_sizes":[],"default_left":[true,true,true,true,false,true,true,false,true,false,false,true,true,true,true,false,false,true,true,false,false,false,false,false,false,false,false],"id":23,"left_children":[1,3,5,7,-1,9,11,-1,13,-1,-1,15,17,19,21,-1,-1,23,25,-1,-1,-1,-1,-1,-1,-1,-1],"loss_changes":[3.6580193E1,7.214432E0,1.1157632E1,4.788513E0,0E0,6.859334E0,3.9954042E0,0E0,4.094675E0,0E0,0E0,9.802017E-1,5.2717543E0,1.063036E0,2.2371936E0,0E0,0E0,4.6237354E0,7.866955E-1,0E0,0E0,0E0,0E0,0E0,0E0,0E0,0E0],"parents":[2147483647,0,0,1,1,2,2,3,3,5,5,6,6,8,8,11,11,12,12,13,13,14,14,17,17,18,18],"right_children":[2,4,6,8,-1,10,12,-1,14,-1,-1,16,18,20,22,-1,-1,24,26,-1,-1,-1,-1,-1,-1,-1,-1],"split_conditions":[1.580866E-1,1.7544266E0,-4.2843542E-1,-1.3396432E-1,3.3350596E-5,1.212549E0,6.2039103E-2,-1.6633607E-4,-6.205933E-1,-1.4527197E-4,4.6090365E-5,1.2402341E0,1.0665466E0,2.0143011E-1,-2.3125339E-1,1.4273117E-4,2.2143386E-5,1.1420772E0,9.9739784E-1,-1.4981446E-4,-2.2147095E-5,8.001701E-5,-4.6070465E-5,-8.572075E-5,4.757372E-5,2.212631E-5,1.3826671E-4],"split_indices":[1,5,7,7,0,1,0,0,1,0,0,7,1,5,1,0,0,7,0,0,0,0,0,0,0,0,0],"split_type":[0,0,0,0,0,0,0,0,0,0,0,0,0,0,0,0,0,0,0,0,0,0,0,0,0,0,0],"sum_hessian":[6.3249874E1,3.8999897E1,2.4249977E1,3.6999897E1,1.9999986E0,6.749992E0,1.7499985E1,2.899991E1,7.9999876E0,4.4999933E0,2.249999E0,5.4999943E0,1.199999E1,4.2499924E0,3.7499955E0,4.249995E0,1.249999E0,8.499996E0,3.4999945E0,2.999994E0,1.2499981E0,1.4999988E0,2.2499967E0,4.2499986E0,4.2499976E0,1.249999E0,2.2499955E0],"tree_param":{"num_deleted":"0","num_feature":"8","num_nodes":"27","size_leaf_vector":"0"}},{"base_weights":[-6.7571473E-1,-1.2995889E0,6.4969546E-1,-1.6227256E0,-7.2315514E-1,-6.6592973E-1,8.255451E-1,-1.710697E0,-4.602579E-1,-1.3520665E0,-1.9008754E-1,9.553366E-1,-4.0023386E-1,-6.6446644E-1,-1.597353E0,5.4215886E-2,-1.1099628E0,-9.47118E-5,1.0806453E0,-7.9808515E-1,-2.2068249E-1,-6.6638184E-1,3.4491628E-1,6.9925916E-1,1.5179602E0],"categories":[],"categories_nodes":[],"categories_segments":[],"categories_sizes":[],"default_left":[true,true,true,true,true,false,true,false,false,true,true,true,false,true,false,true,false,false,true,false,false,false,false,false,false],"id":24,"left_children":[1,3,5,7,9,-1,11,-1,-1,13,15,17,-1,19,-1,21,-1,-1,23,-1,-1,-1,-1,-1,-1],"loss_changes":[5.273153E1,6.8359756E0,5.3503075E0,1.9481812E0,5.526084E0,0E0,3.3654003E0,0E0,0E0,2.4571705E-1,2.4198277E0,2.0653372E0,0E0,4.624307E-2,0E0,2.167517E0,0E0,0E0,1.4820347E0,0E0,0E0,0E0,0E0,0E0,0E0],"parents":[2147483647,0,0,1,1,2,2,3,3,4,4,6,6,9,9,10,10,11,11,13,13,15,15,18,18],"right_children":[2,4,6,8,10,-1,12,-1,-1,14,16,18,-1,20,-1,22,-1,-1,24,-1,-1,-1,-1,-1,-1],"split_conditions":[3.0408907E-1,-4.2843542E-1,-9.668791E-1,1.0135475E0,-4.0488768E-1,-6.659297E-5,2.7503905E0,-1.710697E-4,-4.6025787E-5,6.2039103E-2,5.850861E-1,-4.512269E-1,-4.0023384E-5,-4.0564024E-1,-1.597353E-4,-6.205933E-1,-1.10996276E-4,-9.47118E-9,1.4072189E0,-7.980852E-5,-2.2068249E-5,-6.663818E-5,3.4491626E-5,6.992591E-5,1.5179602E-4],"split_indices":[1,7,5,5,4,0,4,0,0,0,4,4,0,0,0,1,0,0,1,0,0,0,0,0,0],"split_type":[0,0,0,0,0,0,0,0,0,0,0,0,0,0,0,0,0,0,0,0,0,0,0,0,0],"sum_hessian":[6.174987E1,4.199989E1,1.974998E1,2.5749912E1,1.6249977E1,1.9999975E0,1.7749983E1,2.3499916E1,2.2499974E0,6.749982E0,9.499994E0,1.6249985E1,1.4999993E0,2.749993E0,3.9999888E0,8.249996E0,1.2499986E0,1.9999993E0,1.4249985E1,1.4999958E0,1.2499973E0,1.9999994E0,6.2499967E0,8.999994E0,5.249991E0],"tree_param":{"num_deleted":"0","num_feature":"8","num_nodes":"25","size_leaf_vector":"0"}},{"base_weights":[-6.805669E-1,-1.1532495E0,8.5571843E-1,-1.5489289E0,-3.1797516E-1,2.2151162E-1,1.4818019E0,-1.721866E0,-8.86838E-1,-1.0457472E0,7.0906633E-1,5.324355E-1,-7.9986423E-1,-1.8164573E0,-8.2150835E-1,-1.4259135E0,-4.6013036E-1,-1.4975001E0,2.856139E-1,-1.0533209E-1,1.4988979E0,-2.858686E-1,9.987614E-1,-3.3150554E-1,-1.1097298E0,5.462075E-1,-9.458777E-1,-6.6488594E-1,-1.6642233E0,-2.2186767E-1,6.661559E-1,-9.086836E-1,6.661841E-1,2.2178546E-1,-6.664699E-1,1.2718439E0,4.6038002E-1],"categories":[],"categories_nodes":[],"categories_segments":[],"categories_sizes":[],"default_left":[true,true,true,true,true,true,false,true,true,true,true,true,false,false,true,false,true,true,true,true,false,true,true,false,false,false,false,false,false,false,false,false,false,false,false,false,false],"id":25,"left_children":[1,3,5,7,9,11,-1,13,15,17,19,21,-1,-1,23,-1,25,27,29,31,-1,33,35,-1,-1,-1,-1,-1,-1,-1,-1,-1,-1,-1,-1,-1,-1],"loss_changes":[4.7825066E1,1.594986E1,5.9255524E0,2.3087234E0,1.3635036E1,3.2840054E0,0E0,6.7948914E-1,1.4141388E0,6.742881E0,5.142972E0,3.147485E0,0E0,0E0,2.3234224E-1,0E0,3.694011E0,4.009247E-3,8.237116E-1,3.5493937E0,0E0,8.2406116E-1,1.4958048E-1,0E0,0E0,0E0,0E0,0E0,0E0,0E0,0E0,0E0,0E0,0E0,0E0,0E0,0E0],"parents":[2147483647,0,0,1,1,2,2,3,3,4,4,5,5,7,7,8,8,9,9,10,10,11,11,14,14,16,16,17,17,18,18,19,19,21,21,22,22],"right_children":[2,4,6,8,10,12,-1,14,16,18,20,22,-1,-1,24,-1,26,28,30,32,-1,34,36,-1,-1,-1,-1,-1,-1,-1,-1,-1,-1,-1,-1,-1,-1],"split_conditions":[6.772065E-1,-2.3212135E-1,1.3909965E0,5.098154E-1,-4.6855034E-3,1.5076575E0,1.4818019E-4,-4.2843542E-1,-5.017787E-1,1.4186409E-1,1.4443943E-1,-5.232501E-1,-7.998642E-5,-1.8164572E-4,-1.2284984E-2,-1.4259134E-4,4.2226905E-1,-5.679443E-1,-6.927568E-2,3.2301122E-1,1.4988979E-4,-1.5666075E-1,9.8543406E-1,-3.3150554E-5,-1.1097297E-4,5.462075E-5,-9.458776E-5,-6.6488596E-5,-1.6642232E-4,-2.2186767E-5,6.661558E-5,-9.086836E-5,6.661841E-5,2.2178545E-5,-6.6646986E-5,1.271844E-4,4.6038E-5],"split_indices":[1,7,1,3,4,4,0,7,4,1,5,6,0,0,5,0,5,5,5,6,0,3,1,0,0,0,0,0,0,0,0,0,0,0,0,0,0],"split_type":[0,0,0,0,0,0,0,0,0,0,0,0,0,0,0,0,0,0,0,0,0,0,0,0,0,0,0,0,0,0,0,0,0,0,0,0,0],"sum_hessian":[6.3499855E1,4.8749874E1,1.4749983E1,3.2499893E1,1.624998E1,7.999994E0,6.749989E0,2.4499908E1,7.9999857E0,9.499983E0,6.749997E0,6.4999943E0,1.4999995E0,2.1249916E1,3.249993E0,2.4999912E0,5.4999943E0,6.999984E0,2.4999993E0,3.749999E0,2.9999983E0,2.4999986E0,3.999996E0,1.9999952E0,1.2499979E0,1.7499988E0,3.7499957E0,1.9999951E0,4.9999886E0,1.2499996E0,1.2499998E0,1.7499995E0,1.9999994E0,1.2499992E0,1.2499994E0,1.7499987E0,2.2499974E0],"tree_param":{"num_deleted":"0","num_feature":"8","num_nodes":"37","size_leaf_vector":"0"}},{"base_weights":[-7.108638E-1,-1.2456598E0,4.753425E-1,-1.5521867E0,-4.7551755E-2,-5.4450697E-1,7.8648376E-1,-1.6763648E0,-6.0736156E-1,-9.4506425E-1,6.156377E-1,5.456313E-1,-1.1987401E0,3.327728E-1,1.1743565E0,-1.7296014E0,-2.2149459E-1,-1.1093574E0,6.6656774E-1,-2.2076117E-1,-1.1406691E0,-1.7998116E-1,9.4665074E-1,5.799074E-1,-6.663674E-1,1.40524E0,1.806038E-1,-2.2179352E-1,-1.3824841E0,1.271784E0,3.3306164E-1,-4.2787203E-4,7.8183764E-1],"categories":[],"categories_nodes":[],"categories_segments":[],"categories_sizes":[],"default_left":[true,true,true,true,true,true,true,true,true,true,true,false,false,true,true,false,false,true,false,false,false,false,true,true,false,false,false,false,false,false,false,false,false],"id":26,"left_children":[1,3,5,7,9,11,13,15,17,19,21,-1,-1,23,25,-1,-1,27,-1,-1,-1,-1,29,31,-1,-1,-1,-1,-1,-1,-1,-1,-1],"loss_changes":[4.1985207E1,1.6544312E1,7.091901E0,3.205574E0,6.6828213E0,4.5766926E0,2.512908E0,2.0372772E0,4.4166226E0,4.2114973E-1,1.8822191E0,0E0,0E0,2.6087298E0,1.696455E0,0E0,0E0,7.842512E-1,0E0,0E0,0E0,0E0,5.2403355E-1,9.08535E-1,0E0,0E0,0E0,0E0,0E0,0E0,0E0,0E0,0E0],"parents":[2147483647,0,0,1,1,2,2,3,3,4,4,5,5,6,6,7,7,8,8,9,9,10,10,13,13,14,14,17,17,22,22,23,23],"right_children":[2,4,6,8,10,12,14,16,18,20,22,-1,-1,24,26,-1,-1,28,-1,-1,-1,-1,30,32,-1,-1,-1,-1,-1,-1,-1,-1,-1],"split_conditions":[3.0408907E-1,4.476319E-1,-6.247495E-1,2.3122314E-1,-6.205933E-1,-8.733196E-1,1.0341015E0,1.9053158E-1,5.5742085E-1,-7.27926E-1,-3.302784E-1,5.4563126E-5,-1.1987401E-4,9.367665E-1,1.6819408E0,-1.7296014E-4,-2.2149457E-5,3.744534E-1,6.665677E-5,-2.2076116E-5,-1.14066905E-4,-1.7998116E-5,2.586638E-1,-1.5666075E-1,-6.663674E-5,1.40524E-4,1.806038E-5,-2.217935E-5,-1.382484E-4,1.271784E-4,3.330616E-5,-4.2787203E-8,7.818376E-5],"split_indices":[1,6,7,4,1,0,1,1,3,3,7,0,0,1,7,0,0,4,0,0,0,0,7,3,0,0,0,0,0,0,0,0,0],"split_type":[0,0,0,0,0,0,0,0,0,0,0,0,0,0,0,0,0,0,0,0,0,0,0,0,0,0,0,0,0,0,0,0,0],"sum_hessian":[6.424984E1,4.424986E1,1.9999979E1,3.4999874E1,9.249985E0,4.4999957E0,1.5499984E1,3.0249884E1,4.7499914E0,3.7499905E0,5.4999943E0,1.749999E0,2.7499964E0,7.999996E0,7.499987E0,2.8999884E1,1.2499988E0,3.4999928E0,1.2499986E0,1.249997E0,2.4999933E0,1.7499961E0,3.7499979E0,6.7499967E0,1.2499999E0,5.749989E0,1.749998E0,1.2499988E0,2.249994E0,1.7499988E0,1.9999992E0,1.9999993E0,4.749997E0],"tree_param":{"num_deleted":"0","num_feature":"8","num_nodes":"33","size_leaf_vector":"0"}},{"base_weights":[-7.315982E-1,-1.3611106E0,3.2197753E-1,-1.5361798E0,5.00077E-1,-8.7893206E-1,7.210724E-1,-1.6630937E0,5.453927E-1,-1.8112633E-1,1.110402E0,-1.3667231E0,3.9944318E-1,-7.957648E-2,1.0569928E0,-1.8784549E0,-8.2135236E-1,4.9985698E-1,-7.682405E-1,1.198094E0,-7.589104E-4,-1.1082697E0,1.8157147E-1,9.089988E-1,-2.2236395E-1,5.442419E-1,1.553367E0],"categories":[],"categories_nodes":[],"categories_segments":[],"categories_sizes":[],"default_left":[true,true,true,true,true,true,true,true,false,false,false,false,false,true,true,false,true,true,false,true,false,false,false,false,false,false,false],"id":27,"left_children":[1,3,5,7,9,11,13,15,-1,-1,-1,-1,-1,17,19,-1,21,23,-1,25,-1,-1,-1,-1,-1,-1,-1],"loss_changes":[4.0232475E1,1.3068504E1,1.1776946E1,1.0087273E1,1.8641437E0,4.443299E0,4.9252834E0,4.439293E0,0E0,0E0,0E0,0E0,0E0,2.8779776E0,1.9038439E0,0E0,2.647152E0,1.3840911E0,0E0,1.7679195E0,0E0,0E0,0E0,0E0,0E0,0E0,0E0],"parents":[2147483647,0,0,1,1,2,2,3,3,4,4,5,5,6,6,7,7,13,13,14,14,16,16,17,17,19,19],"right_children":[2,4,6,8,10,12,14,16,-1,-1,-1,-1,-1,18,20,-1,22,24,-1,26,-1,-1,-1,-1,-1,-1,-1],"split_conditions":[1.580866E-1,1.1420772E0,-4.967059E-1,1.7544266E0,2.0143011E-1,8.069866E-1,-2.3212135E-1,3.3460385E-1,5.453927E-5,-1.8112632E-5,1.1104019E-4,-1.366723E-4,3.9944316E-5,8.5469604E-1,1.5076575E0,-1.878455E-4,-1.7323466E-2,-5.2659243E-1,-7.682405E-5,-3.667497E-1,-7.589104E-8,-1.10826964E-4,1.8157147E-5,9.089988E-5,-2.2236394E-5,5.442419E-5,1.553367E-4],"split_indices":[1,7,5,5,5,1,7,6,0,0,0,0,0,4,4,0,4,7,0,6,0,0,0,0,0,0,0],"split_type":[0,0,0,0,0,0,0,0,0,0,0,0,0,0,0,0,0,0,0,0,0,0,0,0,0,0,0],"sum_hessian":[5.8999844E1,3.674987E1,2.2249973E1,3.3749874E1,2.9999974E0,5.2499933E0,1.6999979E1,3.1999876E1,1.7499988E0,1.7499981E0,1.2499994E0,3.7499943E0,1.499999E0,5.249996E0,1.1749983E1,2.4499895E1,7.4999804E0,2.9999986E0,2.2499976E0,1.0249984E1,1.4999993E0,5.7499824E0,1.7499982E0,1.7499992E0,1.2499993E0,4.4999948E0,5.749989E0],"tree_param":{"num_deleted":"0","num_feature":"8","num_nodes":"27","size_leaf_vector":"0"}},{"base_weights":[-6.5439695E-1,-1.4019811E0,3.5685146E-1,-1.5072552E0,1.5501694E-1,-6.166642E-1,1.2112108E0,-1.6791884E0,-9.502491E-1,-1.1972618E0,-1.17206E-1,1.2837076E0,2.218043E-1,-1.7736032E0,-6.64917E-1,7.4612006E-4,-1.1088312E0,-1.3970441E0,-2.2118527E-1,-1.1100118E0,2.0707268E-1,-1.847589E0,-7.668901E-1,-2.2080442E-1,-7.986511E-1,-2.2094764E-1,-1.2235285E0,4.9987423E-1,-6.657641E-1],"categories":[],"categories_nodes":[],"categories_segments":[],"categories_sizes":[],"default_left":[true,true,true,true,false,true,true,true,true,true,true,false,false,true,true,false,true,false,false,false,true,false,false,false,false,false,false,false,false],"id":28,"left_children":[1,3,5,7,-1,9,11,13,15,17,19,-1,-1,21,23,-1,25,-1,-1,-1,27,-1,-1,-1,-1,-1,-1,-1,-1],"loss_changes":[4.8883728E1,6.29834E0,2.4035374E1,1.7322693E0,0E0,3.8469505E0,8.091297E-1,1.2386932E0,1.5843363E0,9.0975857E-1,2.966389E0,0E0,0E0,2.5894928E-1,4.637766E-2,0E0,6.46204E-1,0E0,0E0,0E0,2.1856642E0,0E0,0E0,0E0,0E0,0E0,0E0,0E0,0E0],"parents":[2147483647,0,0,1,1,2,2,3,3,5,5,6,6,7,7,8,8,9,9,10,10,13,13,14,14,16,16,20,20],"right_children":[2,4,6,8,-1,10,12,14,16,18,20,-1,-1,22,24,-1,26,-1,-1,-1,28,-1,-1,-1,-1,-1,-1,-1,-1],"split_conditions":[-2.3212135E-1,1.0881243E0,-1.1842717E-1,3.1939363E-1,1.5501693E-5,-5.7760656E-1,2.6144326E0,-4.2843542E-1,-9.7771026E-2,5.650072E-1,-3.736548E-1,1.2837075E-4,2.218043E-5,8.282545E-1,-7.1042097E-1,7.4612004E-8,-9.345459E-1,-1.397044E-4,-2.2118526E-5,-1.1100118E-4,7.1434635E-1,-1.847589E-4,-7.668901E-5,-2.2080441E-5,-7.986511E-5,-2.2094764E-5,-1.2235285E-4,4.9987422E-5,-6.657641E-5],"split_indices":[7,6,4,3,0,4,7,7,5,6,2,0,0,2,5,0,2,0,0,0,5,0,0,0,0,0,0,0,0],"split_type":[0,0,0,0,0,0,0,0,0,0,0,0,0,0,0,0,0,0,0,0,0,0,0,0,0,0,0,0,0],"sum_hessian":[6.299981E1,3.599986E1,2.6999952E1,3.3749863E1,2.2499964E0,1.2749973E1,1.4249978E1,2.4249886E1,9.499975E0,5.249983E0,7.4999905E0,1.299998E1,1.2499988E0,2.1499893E1,2.7499928E0,1.4999964E0,7.999979E0,3.9999855E0,1.2499977E0,1.2499987E0,6.249992E0,1.92499E1,2.2499914E0,1.2499965E0,1.4999962E0,1.2499956E0,6.7499833E0,4.9999948E0,1.2499974E0],"tree_param":{"num_deleted":"0","num_feature":"8","num_nodes":"29","size_leaf_vector":"0"}},{"base_weights":[-6.101387E-1,-1.2853433E0,7.302163E-2,-1.5301234E0,-4.4218546E-1,-3.231181E-1,1.2203151E0,-1.6757908E0,-9.974499E-1,-1.0369247E0,6.6696084E-1,-1.2915642E0,-1.3011761E-1,4.604089E-1,1.4054084E0,-1.7638291E0,-3.9801E-1,-3.316502E-1,-1.164108E0,-1.1968619E0,-2.2065353E-1,2.2306573E-1,7.9968184E-1,4.2825878E-1,-3.523834E-1,-2.2082739E-1,-1.3658496E0,-3.977162E-1,-1.425719E0,-1.1705348E-1,9.3207675E-1,-6.927261E-1,4.339782E-1],"categories":[],"categories_nodes":[],"categories_segments":[],"categories_sizes":[],"default_left":[true,true,true,true,true,true,true,true,true,true,true,false,true,false,false,false,false,false,true,true,false,false,false,true,true,false,false,false,false,false,false,false,false],"id":29,"left_children":[1,3,5,7,9,11,13,15,17,19,21,-1,23,-1,-1,-1,-1,-1,25,27,-1,-1,-1,29,31,-1,-1,-1,-1,-1,-1,-1,-1],"loss_changes":[3.099905E1,6.288975E0,1.5960509E1,3.2649612E-1,6.6284494E0,4.7383385E0,6.188183E-1,1.4072266E0,5.0160885E-1,5.5185604E-1,4.254639E-2,0E0,3.0053902E0,0E0,0E0,0E0,0E0,0E0,8.4017277E-1,3.474164E-1,0E0,0E0,0E0,2.032267E0,4.8503714E0,0E0,0E0,0E0,0E0,0E0,0E0,0E0,0E0],"parents":[2147483647,0,0,1,1,2,2,3,3,4,4,5,5,6,6,7,7,8,8,9,9,10,10,12,12,18,18,19,19,23,23,24,24],"right_children":[2,4,6,8,10,12,14,16,18,20,22,-1,24,-1,-1,-1,-1,-1,26,28,-1,-1,-1,30,32,-1,-1,-1,-1,-1,-1,-1,-1],"split_conditions":[-2.742954E-1,3.3460385E-1,9.9739784E-1,-5.144167E-1,3.474908E-1,-8.797232E-1,1.3091841E0,9.885091E-1,-4.512269E-1,-5.649686E-1,1.9626915E-3,-1.2915643E-4,-4.3485636E-1,4.604089E-5,1.4054084E-4,-1.763829E-4,-3.9800998E-5,-3.316502E-5,-8.782741E-1,-6.140367E-1,-2.2065353E-5,2.2306573E-5,7.996818E-5,-6.2178737E-1,9.3307287E-1,-2.2082739E-5,-1.3658496E-4,-3.9771618E-5,-1.425719E-4,-1.1705348E-5,9.320767E-5,-6.92726E-5,4.339782E-5],"split_indices":[4,6,0,4,2,6,0,2,4,4,5,0,6,0,0,0,0,0,6,2,0,0,0,6,6,0,0,0,0,0,0,0,0],"split_type":[0,0,0,0,0,0,0,0,0,0,0,0,0,0,0,0,0,0,0,0,0,0,0,0,0,0,0,0,0,0,0,0,0],"sum_hessian":[6.5999794E1,3.2749863E1,3.3249935E1,2.4749884E1,7.999978E0,2.5249949E1,7.999987E0,1.7749907E1,6.9999766E0,5.2499814E0,2.7499964E0,3.249989E0,2.199996E1,2.2499971E0,5.74999E0,1.6249912E1,1.4999946E0,1.9999949E0,4.9999814E0,3.9999843E0,1.2499971E0,1.2499979E0,1.4999986E0,5.999991E0,1.59999695E1,1.2499961E0,3.7499855E0,1.4999945E0,2.4999897E0,3.2499948E0,2.749996E0,1.1249977E1,4.7499924E0],"tree_param":{"num_deleted":"0","num_feature":"8","num_nodes":"33","size_leaf_vector":"0"}},{"base_weights":[-6.9988686E-1,-1.3337572E0,3.9934632E-1,-1.6520005E0,-3.0997765E-1,-1.3311057E0,7.4295926E-1,-1.7267191E0,-4.597312E-1,-1.4968653E0,8.790277E-1,-1.0501396E-1,9.2802495E-1,-1.7850215E0,-2.2079447E-1,1.535492E-1,1.2487221E0,-7.682081E-1,7.9914415E-1,3.6949974E-1,1.16486E0,-2.2247514E-1,1.0754654E0,1.34698E0,-2.2298308E-1],"categories":[],"categories_nodes":[],"categories_segments":[],"categories_sizes":[],"default_left":[true,true,true,true,true,false,true,true,false,false,true,true,true,false,false,false,false,false,false,true,true,false,false,false,false],"id":30,"left_children":[1,3,5,7,9,-1,11,13,-1,-1,15,17,19,-1,-1,-1,-1,-1,-1,21,23,-1,-1,-1,-1],"loss_changes":[4.669357E1,1.3253372E1,1.585408E1,2.0568771E0,1.719193E1,0E0,3.4714613E0,2.2178802E0,0E0,0E0,1.4845424E0,3.4621608E0,1.9175224E0,0E0,0E0,0E0,0E0,0E0,0E0,3.0601816E0,3.333397E0,0E0,0E0,0E0,0E0],"parents":[2147483647,0,0,1,1,2,2,3,3,4,4,6,6,7,7,10,10,11,11,12,12,19,19,20,20],"right_children":[2,4,6,8,10,-1,12,14,-1,-1,16,18,20,-1,-1,-1,-1,-1,-1,22,24,-1,-1,-1,-1],"split_conditions":[1.580866E-1,-4.6855034E-3,-7.2290653E-1,1.0794297E0,-2.3212135E-1,-1.3311057E-4,-4.824582E-1,1.4409778E0,-4.5973116E-5,-1.4968653E-4,-7.403603E-2,7.4209654E-1,-5.232501E-1,-1.7850214E-4,-2.2079446E-5,1.5354919E-5,1.2487221E-4,-7.6820805E-5,7.991441E-5,4.436406E-1,1.5076575E0,-2.2247514E-5,1.0754654E-4,1.34698E-4,-2.2298307E-5],"split_indices":[1,4,7,6,7,0,5,5,0,0,6,1,6,0,0,0,0,0,0,5,4,0,0,0,0],"split_type":[0,0,0,0,0,0,0,0,0,0,0,0,0,0,0,0,0,0,0,0,0,0,0,0,0],"sum_hessian":[6.524979E1,4.124982E1,2.3999964E1,3.0999842E1,1.0249977E1,3.4999897E0,2.0499975E1,2.8749847E1,2.2499952E0,4.9999804E0,5.2499967E0,3.7499971E0,1.6749977E1,2.749985E1,1.2499974E0,2.249999E0,2.9999976E0,2.2499986E0,1.4999985E0,5.7499948E0,1.0999983E1,3.4999983E0,2.2499964E0,9.749984E0,1.2499993E0],"tree_param":{"num_deleted":"0","num_feature":"8","num_nodes":"25","size_leaf_vector":"0"}},{"base_weights":[-7.0522773E-1,-1.2933774E0,2.7384397E-1,-1.5829935E0,-3.2442272E-1,-1.871102E-1,9.501706E-1,-1.6319662E0,-2.2103338E-1,-1.475078E0,8.32356E-1,-9.2158455E-1,2.8538427E-1,1.3307575E0,-8.000082E-1,1.3291325E-1,1.3832958E0,-1.1560133E0,-1.8154104E-1,-1.1756531E-1,1.3319467E0,1.5687844E0,3.317759E-1,-6.665583E-1,7.992726E-1,-2.2094351E-1,-1.4268398E0,2.8553614E-1,-1.1992233E0],"categories":[],"categories_nodes":[],"categories_segments":[],"categories_sizes":[],"default_left":[true,true,true,true,true,true,true,false,false,false,true,true,true,true,false,true,false,true,false,true,false,false,false,false,false,false,false,false,false],"id":31,"left_children":[1,3,5,7,9,11,13,-1,-1,-1,15,17,19,21,-1,23,-1,25,-1,27,-1,-1,-1,-1,-1,-1,-1,-1,-1],"loss_changes":[3.821558E1,1.1062172E1,8.127543E0,1.7402802E0,1.5536584E1,5.8155613E0,8.058603E0,0E0,0E0,0E0,2.1282454E0,9.178033E-1,4.5845623E0,1.6195698E0,0E0,2.5305185E0,0E0,8.876457E-1,0E0,4.048571E0,0E0,0E0,0E0,0E0,0E0,0E0,0E0,0E0,0E0],"parents":[2147483647,0,0,1,1,2,2,3,3,4,4,5,5,6,6,10,10,11,11,12,12,13,13,15,15,17,17,19,19],"right_children":[2,4,6,8,10,12,14,-1,-1,-1,16,18,20,22,-1,24,-1,26,-1,28,-1,-1,-1,-1,-1,-1,-1,-1,-1],"split_conditions":[1.580866E-1,-8.472594E-2,1.0341015E0,1.604826E0,-2.3212135E-1,-2.3312393E-1,1.6466751E0,-1.6319662E-4,-2.2103337E-5,-1.4750779E-4,1.4443943E-1,7.4209654E-1,1.1420772E0,1.6819408E0,-8.000081E-5,-6.205933E-1,1.3832957E-4,2.5542158E-1,-1.8154104E-5,1.0232022E0,1.3319467E-4,1.5687844E-4,3.317759E-5,-6.665583E-5,7.992726E-5,-2.2094351E-5,-1.4268397E-4,2.8553613E-5,-1.19922326E-4],"split_indices":[1,4,1,5,7,5,4,0,0,0,5,1,7,7,0,1,0,1,0,4,0,0,0,0,0,0,0,0,0],"split_type":[0,0,0,0,0,0,0,0,0,0,0,0,0,0,0,0,0,0,0,0,0,0,0,0,0,0,0,0,0],"sum_hessian":[6.474978E1,4.0249817E1,2.4499964E1,3.049984E1,9.749977E0,1.4999984E1,9.49998E0,2.9249842E1,1.2499981E0,4.7499804E0,4.9999967E0,5.4999924E0,9.499991E0,7.9999804E0,1.4999994E0,2.7499988E0,2.2499979E0,3.7499928E0,1.7499995E0,7.499994E0,1.9999975E0,5.999984E0,1.9999967E0,1.2499999E0,1.4999989E0,1.2499979E0,2.499995E0,5.9999957E0,1.4999982E0],"tree_param":{"num_deleted":"0","num_feature":"8","num_nodes":"29","size_leaf_vector":"0"}},{"base_weights":[-7.499164E-1,-1.1496412E0,8.9995855E-1,-1.3484663E0,2.8564999E-1,-6.6622967E-1,1.1281297E0,-1.6627597E0,-8.2396585E-1,-5.25314E-1,1.3830124E0,2.4915808E-1,1.4090427E0,-1.8115706E0,-8.788581E-1,-1.4380386E0,1.0601437E-3,-1.1981499E0,1.5388662E-1,7.9862434E-1,-3.9997107E-1,1.5834429E0,2.2084546E-1,-1.1987863E0,-2.8497535E-1,-2.1981388E-1,-1.5751928E0,-1.0559454E0,7.821389E-1],"categories":[],"categories_nodes":[],"categories_segments":[],"categories_sizes":[],"default_left":[true,true,true,true,true,false,true,true,true,true,false,true,true,false,true,true,true,false,false,false,false,false,false,false,false,false,false,false,false],"id":32,"left_children":[1,3,5,7,9,-1,11,13,15,17,-1,19,21,-1,23,25,27,-1,-1,-1,-1,-1,-1,-1,-1,-1,-1,-1,-1],"loss_changes":[4.225297E1,1.4867752E1,5.307911E0,6.006813E0,6.955958E0,0E0,2.4884377E0,1.5575027E0,9.500727E0,2.3550816E0,0E0,1.7461238E0,1.411686E0,0E0,8.458729E-1,1.4499035E0,8.256322E0,0E0,0E0,0E0,0E0,0E0,0E0,0E0,0E0,0E0,0E0,0E0,0E0],"parents":[2147483647,0,0,1,1,2,2,3,3,4,4,6,6,7,7,8,8,9,9,11,11,12,12,14,14,15,15,16,16],"right_children":[2,4,6,8,10,-1,12,14,16,18,-1,20,22,-1,24,26,28,-1,-1,-1,-1,-1,-1,-1,-1,-1,-1,-1,-1],"split_conditions":[8.069866E-1,1.1420772E0,-6.247495E-1,-8.562866E-2,3.8664988E-1,-6.662297E-5,1.0341015E0,1.9053158E-1,-5.2659243E-1,-3.4481087E-1,1.3830124E-4,9.367665E-1,1.8358482E0,-1.8115705E-4,-6.3193095E-1,-1.6072933E-2,-6.205933E-1,-1.1981499E-4,1.5388661E-5,7.986243E-5,-3.9997107E-5,1.583443E-4,2.2084545E-5,-1.1987862E-4,-2.8497534E-5,-2.1981388E-5,-1.5751927E-4,-1.0559454E-4,7.821389E-5],"split_indices":[1,7,7,6,5,0,1,1,7,1,0,1,6,0,6,6,1,0,0,0,0,0,0,0,0,0,0,0,0],"split_type":[0,0,0,0,0,0,0,0,0,0,0,0,0,0,0,0,0,0,0,0,0,0,0,0,0,0,0,0,0],"sum_hessian":[6.149977E1,4.9749794E1,1.1749975E1,4.37498E1,5.9999914E0,1.2499987E0,1.0499976E1,2.5999868E1,1.7749935E1,3.7499945E0,2.249997E0,2.9999971E0,7.4999795E0,2.0749876E1,5.249993E0,9.749953E0,7.999981E0,1.499996E0,2.2499986E0,1.4999977E0,1.4999993E0,6.249982E0,1.2499979E0,2.7499962E0,2.4999964E0,1.2499939E0,8.499959E0,3.2499862E0,4.7499948E0],"tree_param":{"num_deleted":"0","num_feature":"8","num_nodes":"29","size_leaf_vector":"0"}},{"base_weights":[-6.9619685E-1,-1.2916667E0,6.4864254E-1,-1.5615969E0,-5.0759685E-1,-1.659989E-1,9.3125653E-1,-1.7259614E0,-7.567607E-1,-1.1686132E0,3.0777988E-1,6.666579E-1,-7.4899197E-1,-1.8171254E-1,1.0919669E0,6.67361E-1,-1.16468E0,-6.6522264E-1,6.6615593E-1,-1.1987369E0,3.4954562E-4,1.2148618E0,1.8096472E-1,-1.4638003E0,-4.6117866E-1,1.0761511E0,-5.7528436E-5,2.4882711E-1,1.5265418E0],"categories":[],"categories_nodes":[],"categories_segments":[],"categories_sizes":[],"default_left":[true,true,true,true,true,true,true,false,true,false,true,false,true,false,true,false,true,false,true,false,false,true,false,false,false,false,false,false,false],"id":33,"left_children":[1,3,5,7,9,11,13,-1,15,-1,17,-1,19,-1,21,-1,23,-1,25,-1,-1,27,-1,-1,-1,-1,-1,-1,-1],"loss_changes":[5.1288742E1,8.51963E0,4.759162E0,2.960083E0,7.2316155E0,3.4119177E0,2.881402E0,0E0,4.9889708E0,0E0,2.7096956E0,0E0,1.3484678E0,0E0,1.263588E0,0E0,5.8751297E-1,0E0,1.4340689E0,0E0,0E0,3.0827255E0,0E0,0E0,0E0,0E0,0E0,0E0,0E0],"parents":[2147483647,0,0,1,1,2,2,3,3,4,4,5,5,6,6,8,8,10,10,12,12,14,14,16,16,18,18,21,21],"right_children":[2,4,6,8,10,12,14,-1,16,-1,18,-1,20,-1,22,-1,24,-1,26,-1,-1,28,-1,-1,-1,-1,-1,-1,-1],"split_conditions":[3.0408907E-1,2.4910825E-1,-2.8119987E-1,-3.580728E-2,-4.0488768E-1,-8.733196E-1,-3.2484722E-1,-1.7259613E-4,6.2039103E-2,-1.16861316E-4,-3.302784E-1,6.6665794E-5,2.717882E-1,-1.8171253E-5,1.5076575E0,6.67361E-5,-2.742954E-1,-6.652226E-5,1.2199903E0,-1.19873686E-4,3.495456E-8,8.069866E-1,1.8096473E-5,-1.4638003E-4,-4.6117864E-5,1.0761511E-4,-5.7528435E-9,2.4882711E-5,1.5265417E-4],"split_indices":[1,6,7,7,4,0,4,0,0,0,7,0,3,0,4,0,4,0,6,0,0,1,0,0,0,0,0,0,0],"split_type":[0,0,0,0,0,0,0,0,0,0,0,0,0,0,0,0,0,0,0,0,0,0,0,0,0,0,0,0,0],"sum_hessian":[6.199975E1,4.2999783E1,1.8999966E1,3.124982E1,1.1749963E1,4.9999948E0,1.3999971E1,2.4999836E1,6.249984E0,6.2499685E0,5.4999948E0,1.9999983E0,2.9999964E0,1.7499988E0,1.2249973E1,1.2499979E0,4.9999857E0,1.2499975E0,4.249997E0,1.4999974E0,1.4999989E0,1.0499974E1,1.749999E0,2.749988E0,2.2499979E0,2.249998E0,1.9999989E0,2.999997E0,7.4999766E0],"tree_param":{"num_deleted":"0","num_feature":"8","num_nodes":"29","size_leaf_vector":"0"}},{"base_weights":[-6.2295896E-1,-1.37665E0,5.133603E-1,-1.5480976E0,4.9981874E-1,-6.2086172E-2,1.286142E0,-1.6718929E0,5.453985E-1,-2.2141275E-1,9.081647E-1,-1.2913371E0,3.5253283E-1,1.4841274E0,-4.558326E-4,-1.9329087E-1,9.987999E-1,1.0001216E0,-7.823252E-1,5.6147586E-5,1.4981582E0],"categories":[],"categories_nodes":[],"categories_segments":[],"categories_sizes":[],"default_left":[true,true,true,true,true,true,true,false,false,false,false,false,true,false,false,true,true,false,false,false,false],"id":34,"left_children":[1,3,5,7,9,11,13,-1,-1,-1,-1,-1,15,-1,-1,17,19,-1,-1,-1,-1],"loss_changes":[5.551825E1,1.3240196E1,1.1753059E1,1.0176941E1,1.3791256E0,8.609961E0,2.866354E0,0E0,0E0,0E0,0E0,0E0,4.690591E0,0E0,0E0,6.2303643E0,2.9922986E0,0E0,0E0,0E0,0E0],"parents":[2147483647,0,0,1,1,2,2,3,3,4,4,5,5,6,6,12,12,15,15,16,16],"right_children":[2,4,6,8,10,12,14,-1,-1,-1,-1,-1,16,-1,-1,18,20,-1,-1,-1,-1],"split_conditions":[1.580866E-1,1.1420772E0,1.0341015E0,1.6760644E0,-7.6659584E-1,-7.2290653E-1,1.6466751E0,-1.6718928E-4,5.4539847E-5,-2.2141274E-5,9.0816466E-5,-1.2913371E-4,2.6554465E-1,1.4841274E-4,-4.558326E-8,6.2039103E-2,-3.580729E-2,1.00012156E-4,-7.823252E-5,5.6147584E-9,1.4981582E-4],"split_indices":[1,7,1,5,1,7,4,0,0,0,0,0,5,0,0,0,7,0,0,0,0],"split_type":[0,0,0,0,0,0,0,0,0,0,0,0,0,0,0,0,0,0,0,0,0],"sum_hessian":[6.2999737E1,3.7749786E1,2.524995E1,3.474979E1,2.9999962E0,1.4999978E1,1.0249971E1,3.2999794E1,1.7499982E0,1.2499979E0,1.7499983E0,3.249988E0,1.174999E1,8.749972E0,1.4999993E0,6.749996E0,4.9999943E0,1.999999E0,4.749997E0,1.9999994E0,2.999995E0],"tree_param":{"num_deleted":"0","num_feature":"8","num_nodes":"21","size_leaf_vector":"0"}},{"base_weights":[-5.852903E-1,-1.3613714E0,4.4959688E-1,-1.6902012E0,-4.5290568E-1,-7.571123E-1,8.355989E-1,-1.792821E0,1.811424E-3,-1.0744857E0,3.640343E-1,-1.2357638E0,3.328975E-1,5.0753236E-1,1.3521649E0,-1.4966867E0,-2.8497526E-1,-6.648268E-1,1.141904E0,-3.9827704E-1,-1.4645509E0,-7.9860306E-1,7.156687E-1,1.535742E0,2.2086911E-1,-6.657912E-1,2.2249669E-1,-4.951036E-4,1.0840383E0],"categories":[],"categories_nodes":[],"categories_segments":[],"categories_sizes":[],"default_left":[true,true,true,true,true,true,true,false,false,true,true,true,false,true,true,false,true,false,false,false,false,false,true,false,false,false,false,false,false],"id":35,"left_children":[1,3,5,7,9,11,13,-1,-1,15,17,19,-1,21,23,-1,25,-1,-1,-1,-1,-1,27,-1,-1,-1,-1,-1,-1],"loss_changes":[5.12107E1,1.0063423E1,1.35583515E1,4.5611115E0,5.976863E0,4.1939535E0,2.9572887E0,0E0,0E0,1.7401328E0,5.16092E0,4.2263317E-1,0E0,4.5813794E0,1.270319E0,0E0,8.245224E-1,0E0,0E0,0E0,0E0,0E0,3.4960542E0,0E0,0E0,0E0,0E0,0E0,0E0],"parents":[2147483647,0,0,1,1,2,2,3,3,4,4,5,5,6,6,9,9,10,10,11,11,13,13,14,14,16,16,22,22],"right_children":[2,4,6,8,10,12,14,-1,-1,16,18,20,-1,22,24,-1,26,-1,-1,-1,-1,-1,28,-1,-1,-1,-1,-1,-1],"split_conditions":[1.580866E-1,-2.3212135E-1,-4.967059E-1,9.301747E-1,-6.205933E-1,7.4209654E-1,1.4072189E0,-1.792821E-4,1.811424E-7,1.1420772E0,-4.6503562E-2,2.5542158E-1,3.328975E-5,-7.2290653E-1,1.7097784E0,-1.4966866E-4,2.0143011E-1,-6.648268E-5,1.141904E-4,-3.9827704E-5,-1.4645509E-4,-7.986031E-5,-5.232501E-1,1.535742E-4,2.208691E-5,-6.657912E-5,2.2249667E-5,-4.951036E-8,1.0840382E-4],"split_indices":[1,7,5,6,1,1,1,0,0,7,6,1,0,7,6,0,5,0,0,0,0,0,6,0,0,0,0,0,0],"split_type":[0,0,0,0,0,0,0,0,0,0,0,0,0,0,0,0,0,0,0,0,0,0,0,0,0,0,0,0,0],"sum_hessian":[6.1999737E1,3.5249786E1,2.6749947E1,2.5249819E1,9.9999695E0,6.2499866E0,2.049996E1,2.3749823E1,1.4999957E0,5.499979E0,4.499991E0,4.2499886E0,1.999998E0,1.374998E1,6.7499804E0,2.9999835E0,2.4999952E0,1.9999931E0,2.4999976E0,1.499996E0,2.7499926E0,1.4999973E0,1.2249983E1,5.4999824E0,1.249998E0,1.2499982E0,1.2499971E0,4.499996E0,7.7499866E0],"tree_param":{"num_deleted":"0","num_feature":"8","num_nodes":"29","size_leaf_vector":"0"}},{"base_weights":[-6.6426724E-1,-1.3407972E0,5.1916516E-1,-1.4704821E0,4.000487E-1,-7.804753E-1,8.625607E-1,-1.6800177E0,-5.922969E-1,-3.9915285E-1,1.1102502E0,-1.3303201E0,6.6608924E-1,-6.664034E-1,9.9822444E-1,-1.7724229E0,-9.539392E-1,-1.4252383E0,-7.2654516E-2,6.081023E-1,1.4085995E0,4.005641E-1,-1.526251E0,-8.5457915E-1,5.883775E-1,7.993731E-1,-4.0022117E-1,1.5829456E0,2.2077386E-1],"categories":[],"categories_nodes":[],"categories_segments":[],"categories_sizes":[],"default_left":[true,true,true,true,true,true,true,true,true,false,false,false,false,false,true,false,true,false,true,true,true,false,false,false,false,false,false,false,false],"id":36,"left_children":[1,3,5,7,9,11,13,15,17,-1,-1,-1,-1,-1,19,-1,21,-1,23,25,27,-1,-1,-1,-1,-1,-1,-1,-1],"loss_changes":[5.4137726E1,1.023951E1,1.1830452E1,6.365326E0,2.571635E0,5.459569E0,4.865569E0,4.3941498E-1,3.9001307E0,0E0,0E0,0E0,0E0,0E0,2.1852531E0,0E0,5.068737E0,0E0,3.99173E0,2.537846E0,1.4108086E0,0E0,0E0,0E0,0E0,0E0,0E0,0E0,0E0],"parents":[2147483647,0,0,1,1,2,2,3,3,4,4,5,5,6,6,7,7,8,8,14,14,16,16,18,18,19,19,20,20],"right_children":[2,4,6,8,10,12,14,16,18,-1,-1,-1,-1,-1,20,-1,22,-1,24,26,28,-1,-1,-1,-1,-1,-1,-1,-1],"split_conditions":[1.580866E-1,1.3091841E0,-7.2290653E-1,4.6936804E-1,1.1869128E-1,1.1963265E0,-1.1087695E0,-3.580728E-2,-6.247495E-1,-3.9915285E-5,1.1102502E-4,-1.3303201E-4,6.6608925E-5,-6.664034E-5,1.0665466E0,-1.7724228E-4,-5.615334E-1,-1.4252382E-4,-6.205933E-1,9.367665E-1,1.6619589E0,4.005641E-5,-1.5262509E-4,-8.545791E-5,5.8837744E-5,7.993731E-5,-4.0022114E-5,1.5829456E-4,2.2077385E-5],"split_indices":[1,0,7,6,6,1,3,7,7,0,0,0,0,0,1,0,0,0,1,1,6,0,0,0,0,0,0,0,0],"split_type":[0,0,0,0,0,0,0,0,0,0,0,0,0,0,0,0,0,0,0,0,0,0,0,0,0,0,0,0,0],"sum_hessian":[6.574969E1,4.1749744E1,2.3999947E1,3.899975E1,2.7499952E0,4.7499847E0,1.9249962E1,3.0749775E1,8.249973E0,1.4999967E0,1.2499987E0,3.4999855E0,1.2499992E0,1.2499982E0,1.7999964E1,2.5999792E1,4.749982E0,2.4999857E0,5.749987E0,1.049999E1,7.499973E0,1.4999976E0,3.2499845E0,2.4999907E0,3.2499962E0,8.999991E0,1.4999994E0,6.249975E0,1.2499975E0],"tree_param":{"num_deleted":"0","num_feature":"8","num_nodes":"29","size_leaf_vector":"0"}},{"base_weights":[-7.376486E-1,-1.4029721E0,4.1581506E-1,-1.6921694E0,-5.5135036E-1,-2.0627315E-1,1.235289E0,-1.7839811E0,2.228453E-1,-1.3297385E0,6.6564786E-1,-1.3824775E0,1.2261938E-1,1.348496E0,2.2086468E-1,-1.6327403E0,-3.3098862E-1,-4.000153E-1,1.1985841E0,4.18553E-1,-1.1989427E0,1.5833647E0,3.3139777E-1,-3.517822E-1,7.992691E-1],"categories":[],"categories_nodes":[],"categories_segments":[],"categories_sizes":[],"default_left":[true,true,true,true,true,true,true,false,false,true,true,false,true,true,false,false,false,false,false,true,false,false,false,false,false],"id":37,"left_children":[1,3,5,7,9,11,13,-1,-1,15,17,-1,19,21,-1,-1,-1,-1,-1,23,-1,-1,-1,-1,-1],"loss_changes":[4.9314716E1,9.041565E0,1.2489624E1,5.628174E0,1.2015842E1,5.778762E0,9.079819E-1,0E0,0E0,1.7292442E0,3.4610848E0,0E0,5.2927256E0,1.6849537E0,0E0,0E0,0E0,0E0,0E0,3.4339142E0,0E0,0E0,0E0,0E0,0E0],"parents":[2147483647,0,0,1,1,2,2,3,3,4,4,5,5,6,6,9,9,10,10,12,12,13,13,19,19],"right_children":[2,4,6,8,10,12,14,-1,-1,16,18,-1,20,22,-1,-1,-1,-1,-1,24,-1,-1,-1,-1,-1],"split_conditions":[1.580866E-1,-1.3396432E-1,1.0341015E0,1.7330551E0,-1.14214525E-1,-6.803206E-1,2.1372313E0,-1.783981E-4,2.228453E-5,-4.5836836E-1,-6.205933E-1,-1.3824775E-4,9.692116E-1,1.6819408E0,2.2086468E-5,-1.6327402E-4,-3.3098862E-5,-4.0001527E-5,1.1985841E-4,-4.4683903E-1,-1.1989426E-4,1.5833646E-4,3.3139775E-5,-3.517822E-5,7.9926904E-5],"split_indices":[1,7,1,5,4,3,1,0,0,1,1,0,1,7,0,0,0,0,0,5,0,0,0,0,0],"split_type":[0,0,0,0,0,0,0,0,0,0,0,0,0,0,0,0,0,0,0,0,0,0,0,0,0],"sum_hessian":[6.2499683E1,3.9499733E1,2.2999952E1,2.874977E1,1.0749964E1,1.3499981E1,9.49997E0,2.7499771E1,1.2499981E0,6.4999676E0,4.249996E0,2.2499933E0,1.1249988E1,8.249974E0,1.2499964E0,4.4999757E0,1.9999917E0,1.4999992E0,2.7499971E0,9.7499895E0,1.4999982E0,6.249979E0,1.999995E0,3.2499955E0,6.4999943E0],"tree_param":{"num_deleted":"0","num_feature":"8","num_nodes":"25","size_leaf_vector":"0"}},{"base_weights":[-6.035644E-1,-1.3520594E0,4.6946043E-1,-1.5064675E0,2.5016445E-1,-1.0379943E0,9.115409E-1,-1.6643687E0,-6.127345E-1,-5.444357E-1,1.1101575E0,-2.8428808E-1,-1.4646546E0,1.4193013E-1,1.225628E0,-1.7252249E0,-2.2142622E-1,-1.3815284E0,1.19339E-1,-6.6472685E-1,2.2250035E-1,-5.0044286E-1,7.488207E-1,1.3052288E0,2.2098868E-1,1.1113944E0,-6.644838E-1,1.8118046E-1,-1.1111184E0,1.198694E0,-5.808357E-4,1.4016428E0,2.2163285E-1],"categories":[],"categories_nodes":[],"categories_segments":[],"categories_sizes":[],"default_left":[true,true,true,true,true,true,true,true,true,false,false,true,false,true,true,false,false,false,true,false,false,true,true,true,false,false,false,false,false,false,false,false,false],"id":38,"left_children":[1,3,5,7,9,11,13,15,17,-1,-1,19,-1,21,23,-1,-1,-1,25,-1,-1,27,29,31,-1,-1,-1,-1,-1,-1,-1,-1,-1],"loss_changes":[4.9024498E1,9.221222E0,1.7939754E1,3.6018906E0,3.337808E0,1.5934649E0,4.7209625E0,2.0108414E0,3.8231456E0,0E0,0E0,8.227078E-1,0E0,3.10369E0,8.5112953E-1,0E0,0E0,0E0,4.0432773E0,0E0,0E0,1.8663144E0,1.3492379E0,1.0475063E0,0E0,0E0,0E0,0E0,0E0,0E0,0E0,0E0,0E0],"parents":[2147483647,0,0,1,1,2,2,3,3,4,4,5,5,6,6,7,7,8,8,11,11,13,13,14,14,18,18,21,21,22,22,23,23],"right_children":[2,4,6,8,10,12,14,16,18,-1,-1,20,-1,22,24,-1,-1,-1,26,-1,-1,28,30,32,-1,-1,-1,-1,-1,-1,-1,-1,-1],"split_conditions":[1.580866E-1,1.1420772E0,-4.967059E-1,4.6936804E-1,6.507541E-2,-4.4644898E-1,-5.232501E-1,1.5335877E0,-1.1914253E-1,-5.4443568E-5,1.1101575E-4,-7.602879E-1,-1.4646545E-4,6.68E-1,1.562083E0,-1.7252249E-4,-2.2142622E-5,-1.3815283E-4,2.51297E-1,-6.647268E-5,2.2250035E-5,-7.3481536E-1,-7.623479E-1,1.3667133E0,2.2098868E-5,1.1113944E-4,-6.6448374E-5,1.8118046E-5,-1.1111184E-4,1.1986939E-4,-5.8083568E-8,1.4016428E-4,2.2163285E-5],"split_indices":[1,7,5,6,6,6,6,5,5,0,0,5,0,2,5,0,0,0,5,0,0,6,6,3,0,0,0,0,0,0,0,0,0],"split_type":[0,0,0,0,0,0,0,0,0,0,0,0,0,0,0,0,0,0,0,0,0,0,0,0,0,0,0,0,0,0,0,0,0],"sum_hessian":[5.9249695E1,3.4749752E1,2.4499945E1,3.1749756E1,2.999995E0,5.2499866E0,1.9249956E1,2.6249779E1,5.499977E0,1.7499964E0,1.2499986E0,2.4999943E0,2.7499926E0,5.999993E0,1.3249964E1,2.4999783E1,1.2499962E0,2.2499871E0,3.2499897E0,1.2499951E0,1.2499992E0,2.999997E0,2.999996E0,1.1999967E1,1.249998E0,1.2499981E0,1.9999917E0,1.7499976E0,1.2499993E0,1.4999973E0,1.4999986E0,1.0749968E1,1.2499986E0],"tree_param":{"num_deleted":"0","num_feature":"8","num_nodes":"33","size_leaf_vector":"0"}},{"base_weights":[-7.444265E-1,-1.4055789E0,3.4956285E-1,-1.7085971E0,-5.814083E-1,-1.4082155E-1,1.4635324E0,-1.3296164E0,5.445821E-1,-1.2912982E0,2.0609833E-1,-1.5962812E0,-5.687757E-1,-3.333169E-1,1.1414722E0,-9.0809673E-1,4.302505E-1,-3.3250606E-1,6.0308963E-1],"categories":[],"categories_nodes":[],"categories_segments":[],"categories_sizes":[],"default_left":[true,true,true,false,true,true,false,true,true,false,true,false,false,false,false,false,true,false,false],"id":39,"left_children":[1,3,5,-1,7,9,-1,11,13,-1,15,-1,-1,-1,-1,-1,17,-1,-1],"loss_changes":[4.5516117E1,8.7463455E0,1.3453194E1,0E0,1.0833755E1,7.3505583E0,0E0,6.1373806E-1,3.2625203E0,0E0,4.0120683E0,0E0,0E0,0E0,0E0,0E0,1.8814147E0,0E0,0E0],"parents":[2147483647,0,0,1,1,2,2,4,4,5,5,7,7,8,8,10,10,16,16],"right_children":[2,4,6,-1,8,10,-1,12,14,-1,16,-1,-1,-1,-1,-1,18,-1,-1],"split_conditions":[1.580866E-1,-1.3396432E-1,1.3909965E0,-1.708597E-4,-9.315125E-2,-7.2290653E-1,1.4635324E-4,-4.5836836E-1,1.4443943E-1,-1.2912981E-4,-6.803206E-1,-1.596281E-4,-5.687757E-5,-3.333169E-5,1.1414722E-4,-9.080967E-5,-4.4683903E-1,-3.3250606E-5,6.030896E-5],"split_indices":[1,7,1,0,4,7,0,1,5,0,3,0,0,0,0,0,5,0,0],"split_type":[0,0,0,0,0,0,0,0,0,0,0,0,0,0,0,0,0,0,0],"sum_hessian":[6.124966E1,3.7999718E1,2.3249943E1,2.6999754E1,1.0999961E1,1.6749968E1,6.499975E0,6.499965E0,4.4999957E0,3.2499866E0,1.3499981E1,3.9999762E0,2.499989E0,1.9999988E0,2.4999971E0,1.7499982E0,1.1749983E1,1.9999986E0,9.749985E0],"tree_param":{"num_deleted":"0","num_feature":"8","num_nodes":"19","size_leaf_vector":"0"}},{"base_weights":[-5.5972207E-1,-1.4130846E0,1.4695671E-1,-1.6155987E0,-1.0302716E-1,-7.8974134E-1,7.108313E-1,-1.7152687E0,-4.5913732E-1,-6.6323227E-1,5.45568E-1,8.007912E-1,-1.060941E0,-7.9964995E-2,9.6729475E-1,-1.2348472E0,2.2214721E-1,-1.1094737E0,3.9930716E-1,-6.6583395E-1,1.1448194E0,-2.210261E-1,-1.3479552E0,-1.5390868E-1,9.079045E-1,1.2115184E0,2.2099441E-1],"categories":[],"categories_nodes":[],"categories_segments":[],"categories_sizes":[],"default_left":[true,true,true,true,true,true,true,false,false,false,false,false,true,true,true,true,false,false,true,false,true,false,false,false,false,false,false],"id":40,"left_children":[1,3,5,7,9,11,13,-1,-1,-1,-1,-1,15,17,19,21,-1,-1,23,-1,25,-1,-1,-1,-1,-1,-1],"loss_changes":[3.669218E1,7.1293793E0,1.8519444E1,1.9499626E0,2.0877273E0,6.5649815E0,4.4884634E0,0E0,0E0,0E0,0E0,0E0,2.8961658E0,3.526858E0,5.5459366E0,9.0611076E-1,0E0,0E0,1.5465525E0,0E0,6.7193604E-1,0E0,0E0,0E0,0E0,0E0,0E0],"parents":[2147483647,0,0,1,1,2,2,3,3,4,4,5,5,6,6,12,12,13,13,14,14,15,15,18,18,20,20],"right_children":[2,4,6,8,10,12,14,-1,-1,-1,-1,-1,16,18,20,22,-1,-1,24,-1,26,-1,-1,-1,-1,-1,-1],"split_conditions":[-3.7118644E-1,5.8239615E-1,-2.3212135E-1,9.885091E-1,2.2418277E-1,-1.5634108E-1,-1.1842717E-1,-1.7152687E-4,-4.591373E-5,-6.632323E-5,5.4556796E-5,8.007912E-5,2.2238088E0,-3.736548E-1,-1.2515858E0,-1.0948005E0,2.2214721E-5,-1.1094737E-4,9.948416E-1,-6.6583394E-5,1.7475568E0,-2.210261E-5,-1.3479553E-4,-1.5390868E-5,9.079045E-5,1.2115184E-4,2.209944E-5],"split_indices":[4,6,7,2,3,4,4,0,0,0,0,0,4,2,3,2,0,0,7,0,3,0,0,0,0,0,0],"split_type":[0,0,0,0,0,0,0,0,0,0,0,0,0,0,0,0,0,0,0,0,0,0,0,0,0,0,0],"sum_hessian":[5.9499664E1,2.6499773E1,3.299989E1,2.274979E1,3.7499838E0,1.2249945E1,2.0749945E1,2.0499802E1,2.2499871E0,1.9999864E0,1.7499973E0,1.4999951E0,1.0749949E1,5.249988E0,1.5499957E1,9.49995E0,1.2499993E0,1.2499969E0,3.9999912E0,1.2499987E0,1.4249958E1,1.2499943E0,8.249956E0,2.2499943E0,1.749997E0,1.2999961E1,1.2499976E0],"tree_param":{"num_deleted":"0","num_feature":"8","num_nodes":"27","size_leaf_vector":"0"}},{"base_weights":[-6.8994814E-1,-1.3778449E0,4.6357176E-1,-1.688917E0,-5.6084685E-2,-6.424033E-2,1.2165012E0,-1.7906417E0,-5.8543986E-1,-1.495987E0,9.553356E-1,-1.1968994E0,2.7393228E-1,1.5258771E0,-1.8211222E-1,-9.972632E-1,2.2385302E-1,-3.4327523E-4,1.2927148E0,1.0468752E0,-2.3570126E-1,1.6887416E0,6.643778E-1,1.2491457E0,2.2200544E-1,-7.370232E-1,3.1524202E-1],"categories":[],"categories_nodes":[],"categories_segments":[],"categories_sizes":[],"default_left":[true,true,true,true,true,true,true,false,true,false,true,false,true,true,false,false,false,false,false,true,true,false,false,false,false,false,false],"id":41,"left_children":[1,3,5,7,9,11,13,-1,15,-1,17,-1,19,21,-1,-1,-1,-1,-1,23,25,-1,-1,-1,-1,-1,-1],"loss_changes":[5.162097E1,1.6557236E1,9.913905E0,2.6278687E0,1.4172159E1,6.2648907E0,4.7130127E0,0E0,1.6397003E0,0E0,1.854393E0,0E0,5.2691946E0,7.0646286E-2,0E0,0E0,0E0,0E0,0E0,5.9862804E-1,2.5800374E0,0E0,0E0,0E0,0E0,0E0,0E0],"parents":[2147483647,0,0,1,1,2,2,3,3,4,4,5,5,6,6,8,8,10,10,12,12,13,13,19,19,20,20],"right_children":[2,4,6,8,10,12,14,-1,16,-1,18,-1,20,22,-1,-1,-1,-1,-1,24,26,-1,-1,-1,-1,-1,-1],"split_conditions":[1.580866E-1,-4.6855034E-3,1.0341015E0,9.301747E-1,-3.302784E-1,-7.2290653E-1,1.6466751E0,-1.7906417E-4,-2.4974714E-1,-1.4959871E-4,-6.205933E-1,-1.1968994E-4,6.2039103E-2,1.4856267E0,-1.8211222E-5,-9.972632E-5,2.2385302E-5,-3.432752E-8,1.2927147E-4,3.0283827E-1,5.077454E-1,1.6887415E-4,6.643778E-5,1.2491457E-4,2.2200544E-5,-7.3702315E-5,3.1524203E-5],"split_indices":[1,4,1,6,7,7,4,0,0,0,1,0,0,7,0,0,0,0,0,4,2,0,0,0,0,0,0],"split_type":[0,0,0,0,0,0,0,0,0,0,0,0,0,0,0,0,0,0,0,0,0,0,0,0,0,0,0],"sum_hessian":[6.3249615E1,3.9499676E1,2.3749939E1,3.1749704E1,7.7499714E0,1.4499973E1,9.249965E0,2.8499716E1,3.2499874E0,2.999977E0,4.7499943E0,2.7499862E0,1.1749988E1,7.499966E0,1.7499988E0,1.9999909E0,1.2499965E0,1.4999988E0,3.2499957E0,4.2499967E0,7.4999905E0,5.4999733E0,1.999993E0,2.9999971E0,1.2499995E0,3.7499955E0,3.7499952E0],"tree_param":{"num_deleted":"0","num_feature":"8","num_nodes":"27","size_leaf_vector":"0"}},{"base_weights":[-6.2095755E-1,-1.3374119E0,3.989051E-1,-1.4690704E0,4.6156964E-1,-9.0665454E-1,7.107057E-1,-1.5943806E0,-4.7319117E-1,-1.525818E0,6.658298E-1,1.0979031E0,3.512798E-1,-1.6922703E0,-6.6361326E-1,1.3557826E-1,-1.197068E0,2.8542674E-1,1.3306721E0,-9.087878E-1,6.343627E-1,-1.7789378E0,-8.1996685E-1,-1.07331E0,2.2310887E-1,4.0172789E-1,-2.2040077E-1,6.6652966E-1,-2.2253285E-1,1.5172546E0,2.2097856E-1,2.4901678E-1,1.2464656E0],"categories":[],"categories_nodes":[],"categories_segments":[],"categories_sizes":[],"default_left":[true,true,true,true,false,true,true,true,true,false,false,true,true,true,true,true,false,true,true,false,true,false,false,false,false,false,false,false,false,false,false,false,false],"id":42,"left_children":[1,3,5,7,-1,9,11,13,15,-1,-1,17,19,21,23,25,-1,27,29,-1,31,-1,-1,-1,-1,-1,-1,-1,-1,-1,-1,-1,-1],"loss_changes":[4.5653015E1,9.323082E0,1.1330034E1,3.519699E0,0E0,6.370852E0,2.641243E0,1.6103439E0,2.4758239E0,0E0,0E0,1.5113792E0,5.124461E0,5.447159E-1,1.8742493E0,4.4382846E-1,0E0,8.2587147E-1,1.2175846E0,0E0,2.2841873E0,0E0,0E0,0E0,0E0,0E0,0E0,0E0,0E0,0E0,0E0,0E0,0E0],"parents":[2147483647,0,0,1,1,2,2,3,3,5,5,6,6,7,7,8,8,11,11,12,12,13,13,14,14,15,15,17,17,18,18,20,20],"right_children":[2,4,6,8,-1,10,12,14,16,-1,-1,18,20,22,24,26,-1,28,30,-1,32,-1,-1,-1,-1,-1,-1,-1,-1,-1,-1,-1,-1],"split_conditions":[1.580866E-1,1.3091841E0,-7.2290653E-1,8.282545E-1,4.615696E-5,1.1963265E0,6.2039103E-2,-6.9028385E-2,1.3090184E0,-1.525818E-4,6.658298E-5,-4.2843542E-1,3.7382534E-1,1.0810807E0,2.0590425E-2,1.1888273E0,-1.197068E-4,9.20544E-1,1.2402341E0,-9.087878E-5,1.0665466E0,-1.7789377E-4,-8.199668E-5,-1.07331E-4,2.2310887E-5,4.017279E-5,-2.2040076E-5,6.665297E-5,-2.2253285E-5,1.5172546E-4,2.2097855E-5,2.4901678E-5,1.2464655E-4],"split_indices":[1,0,7,2,0,1,0,1,2,0,0,7,0,3,4,2,0,1,7,0,1,0,0,0,0,0,0,0,0,0,0,0,0],"split_type":[0,0,0,0,0,0,0,0,0,0,0,0,0,0,0,0,0,0,0,0,0,0,0,0,0,0,0,0,0,0,0,0,0],"sum_hessian":[6.074962E1,3.549969E1,2.5249926E1,3.32497E1,2.2499948E0,4.49998E0,2.0749947E1,2.8999722E1,4.2499747E0,3.2499812E0,1.2499987E0,8.999975E0,1.1749971E1,2.5499744E1,3.4999778E0,2.7499845E0,1.49999E0,2.4999983E0,6.499977E0,1.7499985E0,9.999972E0,2.2249767E1,3.2499774E0,2.2499824E0,1.2499952E0,1.4999918E0,1.2499927E0,1.2499999E0,1.2499985E0,5.249979E0,1.249998E0,6.99999E0,2.9999826E0],"tree_param":{"num_deleted":"0","num_feature":"8","num_nodes":"33","size_leaf_vector":"0"}},{"base_weights":[-5.903078E-1,-1.354833E0,1.5155913E-1,-1.6793638E0,-4.9727225E-1,-6.8491113E-1,8.8666725E-1,-1.8294325E0,-7.957401E-1,-8.5399044E-1,2.5130093E-1,-1.1959139E0,-2.0939302E-1,-3.3196217E-1,1.0597435E0,-1.5086457E-1,-1.2685056E0,-1.3639528E0,1.5410133E-1,-5.43061E-1,1.1104965E0,-1.3556578E0,-2.2066475E-1,-7.256919E-1,4.0041387E-1,4.6022007E-1,1.3299496E0,-5.4262185E-1,-1.551255E0,6.5728626E-4,-9.982364E-1,-1.8080638E-1,7.690118E-1,9.45609E-1,-5.4553056E-1,1.4560984E0,2.2024886E-1],"categories":[],"categories_nodes":[],"categories_segments":[],"categories_sizes":[],"default_left":[true,true,true,true,true,true,true,false,true,true,true,true,true,false,true,false,false,false,false,false,false,true,false,true,true,true,true,false,false,false,false,false,false,false,false,false,false],"id":43,"left_children":[1,3,5,7,9,11,13,-1,15,17,19,21,23,-1,25,-1,-1,-1,-1,-1,-1,27,-1,29,31,33,35,-1,-1,-1,-1,-1,-1,-1,-1,-1,-1],"loss_changes":[3.6078987E1,7.8618507E0,2.0898779E1,1.4946594E0,2.8848925E0,3.637424E0,4.1482687E0,0E0,1.3329911E0,3.8087888E0,3.3331103E0,8.692732E-1,3.2815738E0,0E0,1.9798412E0,0E0,0E0,0E0,0E0,0E0,0E0,1.5217018E-1,0E0,1.0894465E0,1.210223E0,3.6890247E0,1.1491585E0,0E0,0E0,0E0,0E0,0E0,0E0,0E0,0E0,0E0,0E0],"parents":[2147483647,0,0,1,1,2,2,3,3,4,4,5,5,6,6,8,8,9,9,10,10,11,11,12,12,14,14,21,21,23,23,24,24,25,25,26,26],"right_children":[2,4,6,8,10,12,14,-1,16,18,20,22,24,-1,26,-1,-1,-1,-1,-1,-1,28,-1,30,32,34,36,-1,-1,-1,-1,-1,-1,-1,-1,-1,-1],"split_conditions":[-4.2843542E-1,3.1939363E-1,-1.1842717E-1,2.0143011E-1,-3.9258175E-2,-5.860318E-1,-2.3212135E-1,-1.8294324E-4,-8.733196E-1,-3.4174085E-2,1.3191079E0,1.1881106E0,-3.464626E-1,-3.3196215E-5,8.0324896E-2,-1.5086457E-5,-1.2685056E-4,-1.3639528E-4,1.5410133E-5,-5.43061E-5,1.1104965E-4,-6.035634E-1,-2.2066475E-5,6.2039103E-2,-2.1175241E-1,-1.0905532E-1,1.4330046E0,-5.4262182E-5,-1.551255E-4,6.572863E-8,-9.982364E-5,-1.8080638E-5,7.6901175E-5,9.456089E-5,-5.4553053E-5,1.4560984E-4,2.2024886E-5],"split_indices":[7,3,4,5,6,4,7,0,0,4,3,6,6,0,5,0,0,0,0,0,0,5,0,0,5,3,6,0,0,0,0,0,0,0,0,0,0],"split_type":[0,0,0,0,0,0,0,0,0,0,0,0,0,0,0,0,0,0,0,0,0,0,0,0,0,0,0,0,0,0,0,0,0,0,0,0,0],"sum_hessian":[6.224959E1,3.0249722E1,3.199987E1,2.124977E1,8.999952E0,1.49999275E1,1.6999943E1,1.7249804E1,3.9999654E0,5.9999614E0,2.9999912E0,6.4999547E0,8.499973E0,1.9999928E0,1.4999949E1,2.249985E0,1.7499804E0,3.749966E0,2.2499957E0,1.7499928E0,1.2499983E0,5.249959E0,1.2499955E0,4.4999833E0,3.99999E0,5.499989E0,9.499961E0,1.7499884E0,3.4999704E0,1.4999924E0,2.9999912E0,1.7499977E0,2.2499924E0,3.7499905E0,1.7499988E0,8.249965E0,1.2499956E0],"tree_param":{"num_deleted":"0","num_feature":"8","num_nodes":"37","size_leaf_vector":"0"}},{"base_weights":[-6.484573E-1,-1.369771E0,5.084378E-1,-1.6448495E0,-3.1348744E-1,-6.638326E-2,1.213994E0,-1.7755162E0,-5.972163E-1,-6.637265E-1,1.1100456E0,-1.1974996E0,2.8529546E-1,4.5985115E-1,1.3477205E0,-1.0730995E0,1.8235908E-1,-1.1387664E0,-2.5914174E-1,6.6588855E-1,-1.2716215E0,1.4801487E0,3.9810526E-1,4.0142334E-1,-9.984667E-1,-1.1755937E-1,1.0333043E0],"categories":[],"categories_nodes":[],"categories_segments":[],"categories_sizes":[],"default_left":[true,true,true,true,true,true,true,false,true,true,false,false,true,false,true,false,false,false,true,true,false,false,false,false,false,false,false],"id":44,"left_children":[1,3,5,7,9,11,13,-1,15,17,-1,-1,19,-1,21,-1,-1,-1,23,25,-1,-1,-1,-1,-1,-1,-1],"loss_changes":[5.4520317E1,1.1106689E1,1.0422558E1,3.2516403E0,5.4732275E0,6.308473E0,